digraph Tree {
node [shape=box, style="filled, rounded", color="black", fontname=helvetica] ;
edge [fontname=helvetica] ;
0 [label="subcategy_id <= 263.5\ngini = 0.493\nsamples = 135183\nvalue = [59360, 75823]", fillcolor="#d4eaf9"] ;
1 [label="staff_pick <= 0.5\ngini = 0.401\nsamples = 77572\nvalue = [21560, 56012]", fillcolor="#85c3ef"] ;
0 -> 1 [labeldistance=2.5, labelangle=45, headlabel="True"] ;
5 [label="convert_goal <= 20501.994\ngini = 0.433\nsamples = 65669\nvalue = [20813, 44856]", fillcolor="#95caf1"] ;
1 -> 5 ;
7 [label="subcategy_id <= 48.5\ngini = 0.403\nsamples = 59229\nvalue = [16586, 42643]", fillcolor="#86c3ef"] ;
5 -> 7 ;
11 [label="category_id <= 2.0\ngini = 0.358\nsamples = 43693\nvalue = [10214, 33479]", fillcolor="#75bbed"] ;
7 -> 11 ;
13 [label="convert_goal <= 2655.325\ngini = 0.487\nsamples = 8068\nvalue = [3374, 4694]", fillcolor="#c7e3f8"] ;
11 -> 13 ;
29 [label="subcategy_id <= 10.5\ngini = 0.434\nsamples = 5127\nvalue = [1629, 3498]", fillcolor="#95cbf1"] ;
13 -> 29 ;
53 [label="gini = 0.0\nsamples = 484\nvalue = [0, 484]", fillcolor="#399de5"] ;
29 -> 53 ;
54 [label="subcategy_id <= 21.5\ngini = 0.456\nsamples = 4643\nvalue = [1629, 3014]", fillcolor="#a4d2f3"] ;
29 -> 54 ;
55 [label="duration <= 23.5\ngini = 0.489\nsamples = 1078\nvalue = [620, 458]", fillcolor="#f8decb"] ;
54 -> 55 ;
187 [label="gini = 0.478\nsamples = 266\nvalue = [105, 161]", fillcolor="#baddf6"] ;
55 -> 187 ;
188 [label="convert_goal <= 400.496\ngini = 0.464\nsamples = 812\nvalue = [515, 297]", fillcolor="#f4caab"] ;
55 -> 188 ;
243 [label="country_CA <= 0.5\ngini = 0.5\nsamples = 242\nvalue = [119, 123]", fillcolor="#f9fcfe"] ;
188 -> 243 ;
599 [label="duration <= 46.5\ngini = 0.498\nsamples = 230\nvalue = [108, 122]", fillcolor="#e8f4fc"] ;
243 -> 599 ;
787 [label="gini = 0.493\nsamples = 207\nvalue = [91, 116]", fillcolor="#d4eaf9"] ;
599 -> 787 ;
788 [label="gini = 0.386\nsamples = 23\nvalue = [17, 6]", fillcolor="#eead7f"] ;
599 -> 788 ;
600 [label="gini = 0.153\nsamples = 12\nvalue = [11, 1]", fillcolor="#e78c4b"] ;
243 -> 600 ;
244 [label="country_US <= 0.5\ngini = 0.424\nsamples = 570\nvalue = [396, 174]", fillcolor="#f0b890"] ;
188 -> 244 ;
1033 [label="gini = 0.335\nsamples = 141\nvalue = [111, 30]", fillcolor="#eca36f"] ;
244 -> 1033 ;
1034 [label="gini = 0.446\nsamples = 429\nvalue = [285, 144]", fillcolor="#f2c19d"] ;
244 -> 1034 ;
56 [label="subcategy_id <= 22.5\ngini = 0.406\nsamples = 3565\nvalue = [1009, 2556]", fillcolor="#87c4ef"] ;
54 -> 56 ;
57 [label="gini = 0.034\nsamples = 1272\nvalue = [22, 1250]", fillcolor="#3c9fe5"] ;
56 -> 57 ;
58 [label="country_US <= 0.5\ngini = 0.49\nsamples = 2293\nvalue = [987, 1306]", fillcolor="#cfe7f9"] ;
56 -> 58 ;
197 [label="convert_goal <= 348.962\ngini = 0.493\nsamples = 474\nvalue = [266, 208]", fillcolor="#f9e4d4"] ;
58 -> 197 ;
245 [label="subcategy_id <= 24.5\ngini = 0.45\nsamples = 111\nvalue = [38, 73]", fillcolor="#a0d0f3"] ;
197 -> 245 ;
529 [label="gini = 0.4\nsamples = 94\nvalue = [26, 68]", fillcolor="#85c2ef"] ;
245 -> 529 ;
530 [label="country_CA <= 0.5\ngini = 0.415\nsamples = 17\nvalue = [12, 5]", fillcolor="#f0b58b"] ;
245 -> 530 ;
819 [label="gini = 0.153\nsamples = 12\nvalue = [11, 1]", fillcolor="#e78c4b"] ;
530 -> 819 ;
820 [label="gini = 0.32\nsamples = 5\nvalue = [1, 4]", fillcolor="#6ab6ec"] ;
530 -> 820 ;
246 [label="country_GB <= 0.5\ngini = 0.467\nsamples = 363\nvalue = [228, 135]", fillcolor="#f4ccae"] ;
197 -> 246 ;
389 [label="gini = 0.413\nsamples = 223\nvalue = [158, 65]", fillcolor="#f0b58a"] ;
246 -> 389 ;
390 [label="gini = 0.5\nsamples = 140\nvalue = [70, 70]", fillcolor="#ffffff"] ;
246 -> 390 ;
198 [label="duration <= 27.5\ngini = 0.479\nsamples = 1819\nvalue = [721, 1098]", fillcolor="#bbddf6"] ;
58 -> 198 ;
339 [label="gini = 0.439\nsamples = 584\nvalue = [190, 394]", fillcolor="#98ccf2"] ;
198 -> 339 ;
340 [label="subcategy_id <= 23.5\ngini = 0.49\nsamples = 1235\nvalue = [531, 704]", fillcolor="#cee7f9"] ;
198 -> 340 ;
349 [label="weekday <= 0.5\ngini = 0.462\nsamples = 535\nvalue = [194, 341]", fillcolor="#aad5f4"] ;
340 -> 349 ;
827 [label="gini = 0.361\nsamples = 93\nvalue = [22, 71]", fillcolor="#76bbed"] ;
349 -> 827 ;
828 [label="month_project <= 6.5\ngini = 0.475\nsamples = 442\nvalue = [172, 270]", fillcolor="#b7dbf6"] ;
349 -> 828 ;
829 [label="weekday <= 5.5\ngini = 0.494\nsamples = 266\nvalue = [118, 148]", fillcolor="#d7ebfa"] ;
828 -> 829 ;
831 [label="gini = 0.498\nsamples = 240\nvalue = [113, 127]", fillcolor="#e9f4fc"] ;
829 -> 831 ;
832 [label="gini = 0.311\nsamples = 26\nvalue = [5, 21]", fillcolor="#68b4eb"] ;
829 -> 832 ;
830 [label="gini = 0.425\nsamples = 176\nvalue = [54, 122]", fillcolor="#91c8f1"] ;
828 -> 830 ;
350 [label="duration <= 51.5\ngini = 0.499\nsamples = 700\nvalue = [337, 363]", fillcolor="#f1f8fd"] ;
340 -> 350 ;
671 [label="duration <= 30.5\ngini = 0.496\nsamples = 592\nvalue = [271, 321]", fillcolor="#e0f0fb"] ;
350 -> 671 ;
673 [label="month_project <= 7.5\ngini = 0.5\nsamples = 420\nvalue = [212, 208]", fillcolor="#fffdfb"] ;
671 -> 673 ;
675 [label="gini = 0.493\nsamples = 253\nvalue = [112, 141]", fillcolor="#d6ebfa"] ;
673 -> 675 ;
676 [label="convert_goal <= 439.5\ngini = 0.48\nsamples = 167\nvalue = [100, 67]", fillcolor="#f6d5be"] ;
673 -> 676 ;
715 [label="gini = 0.42\nsamples = 20\nvalue = [6, 14]", fillcolor="#8ec7f0"] ;
676 -> 715 ;
716 [label="gini = 0.461\nsamples = 147\nvalue = [94, 53]", fillcolor="#f4c8a9"] ;
676 -> 716 ;
674 [label="gini = 0.451\nsamples = 172\nvalue = [59, 113]", fillcolor="#a0d0f3"] ;
671 -> 674 ;
672 [label="gini = 0.475\nsamples = 108\nvalue = [66, 42]", fillcolor="#f6d1b7"] ;
350 -> 672 ;
30 [label="subcategy_id <= 10.5\ngini = 0.483\nsamples = 2941\nvalue = [1745, 1196]", fillcolor="#f7d7c1"] ;
13 -> 30 ;
91 [label="gini = 0.0\nsamples = 72\nvalue = [0, 72]", fillcolor="#399de5"] ;
30 -> 91 ;
92 [label="subcategy_id <= 21.5\ngini = 0.477\nsamples = 2869\nvalue = [1745, 1124]", fillcolor="#f6d2b9"] ;
30 -> 92 ;
97 [label="convert_goal <= 4010.053\ngini = 0.341\nsamples = 624\nvalue = [488, 136]", fillcolor="#eca470"] ;
92 -> 97 ;
521 [label="gini = 0.438\nsamples = 176\nvalue = [119, 57]", fillcolor="#f1bd98"] ;
97 -> 521 ;
522 [label="gini = 0.29\nsamples = 448\nvalue = [369, 79]", fillcolor="#eb9c63"] ;
97 -> 522 ;
98 [label="subcategy_id <= 22.5\ngini = 0.493\nsamples = 2245\nvalue = [1257, 988]", fillcolor="#f9e4d5"] ;
92 -> 98 ;
99 [label="gini = 0.057\nsamples = 341\nvalue = [10, 331]", fillcolor="#3fa0e6"] ;
98 -> 99 ;
100 [label="convert_goal <= 9978.117\ngini = 0.452\nsamples = 1904\nvalue = [1247, 657]", fillcolor="#f3c3a1"] ;
98 -> 100 ;
143 [label="convert_goal <= 4425.377\ngini = 0.48\nsamples = 1385\nvalue = [830, 555]", fillcolor="#f6d5bd"] ;
100 -> 143 ;
287 [label="country_US <= 0.5\ngini = 0.498\nsamples = 597\nvalue = [315, 282]", fillcolor="#fcf2ea"] ;
143 -> 287 ;
289 [label="gini = 0.382\nsamples = 105\nvalue = [78, 27]", fillcolor="#eead7e"] ;
287 -> 289 ;
290 [label="duration <= 53.5\ngini = 0.499\nsamples = 492\nvalue = [237, 255]", fillcolor="#f1f8fd"] ;
287 -> 290 ;
677 [label="gini = 0.497\nsamples = 440\nvalue = [202, 238]", fillcolor="#e1f0fb"] ;
290 -> 677 ;
678 [label="convert_goal <= 3450.0\ngini = 0.44\nsamples = 52\nvalue = [35, 17]", fillcolor="#f2be99"] ;
290 -> 678 ;
707 [label="gini = 0.245\nsamples = 28\nvalue = [24, 4]", fillcolor="#e9965a"] ;
678 -> 707 ;
708 [label="convert_goal <= 3700.0\ngini = 0.497\nsamples = 24\nvalue = [11, 13]", fillcolor="#e1f0fb"] ;
678 -> 708 ;
709 [label="gini = 0.18\nsamples = 10\nvalue = [1, 9]", fillcolor="#4fa8e8"] ;
708 -> 709 ;
710 [label="gini = 0.408\nsamples = 14\nvalue = [10, 4]", fillcolor="#efb388"] ;
708 -> 710 ;
288 [label="duration <= 28.5\ngini = 0.453\nsamples = 788\nvalue = [515, 273]", fillcolor="#f3c4a2"] ;
143 -> 288 ;
331 [label="gini = 0.5\nsamples = 130\nvalue = [63, 67]", fillcolor="#f3f9fd"] ;
288 -> 331 ;
332 [label="gini = 0.43\nsamples = 658\nvalue = [452, 206]", fillcolor="#f1ba93"] ;
288 -> 332 ;
144 [label="gini = 0.316\nsamples = 519\nvalue = [417, 102]", fillcolor="#eba069"] ;
100 -> 144 ;
14 [label="subcategy_id <= 45.5\ngini = 0.31\nsamples = 35625\nvalue = [6840, 28785]", fillcolor="#68b4eb"] ;
11 -> 14 ;
17 [label="subcategy_id <= 37.5\ngini = 0.343\nsamples = 31087\nvalue = [6840, 24247]", fillcolor="#71b9ec"] ;
14 -> 17 ;
19 [label="category_id <= 11.5\ngini = 0.24\nsamples = 19209\nvalue = [2675, 16534]", fillcolor="#59ade9"] ;
17 -> 19 ;
39 [label="subcategy_id <= 29.5\ngini = 0.318\nsamples = 10917\nvalue = [2161, 8756]", fillcolor="#6ab5eb"] ;
19 -> 39 ;
41 [label="subcategy_id <= 19.0\ngini = 0.418\nsamples = 5499\nvalue = [1635, 3864]", fillcolor="#8dc6f0"] ;
39 -> 41 ;
43 [label="gini = 0.0\nsamples = 1766\nvalue = [0, 1766]", fillcolor="#399de5"] ;
41 -> 43 ;
44 [label="category_id <= 9.0\ngini = 0.492\nsamples = 3733\nvalue = [1635, 2098]", fillcolor="#d3e9f9"] ;
41 -> 44 ;
45 [label="subcategy_id <= 27.5\ngini = 0.44\nsamples = 2597\nvalue = [849, 1748]", fillcolor="#99cdf2"] ;
44 -> 45 ;
47 [label="convert_goal <= 771.22\ngini = 0.465\nsamples = 1344\nvalue = [849, 495]", fillcolor="#f4caac"] ;
45 -> 47 ;
111 [label="convert_goal <= 65.315\ngini = 0.494\nsamples = 438\nvalue = [196, 242]", fillcolor="#d9ecfa"] ;
47 -> 111 ;
445 [label="gini = 0.315\nsamples = 46\nvalue = [9, 37]", fillcolor="#69b5eb"] ;
111 -> 445 ;
446 [label="country_HK <= 0.5\ngini = 0.499\nsamples = 392\nvalue = [187, 205]", fillcolor="#eef6fd"] ;
111 -> 446 ;
749 [label="gini = 0.498\nsamples = 385\nvalue = [180, 205]", fillcolor="#e7f3fc"] ;
446 -> 749 ;
750 [label="gini = 0.0\nsamples = 7\nvalue = [7, 0]", fillcolor="#e58139"] ;
446 -> 750 ;
112 [label="convert_goal <= 9458.652\ngini = 0.403\nsamples = 906\nvalue = [653, 253]", fillcolor="#efb286"] ;
47 -> 112 ;
369 [label="country_GB <= 0.5\ngini = 0.425\nsamples = 778\nvalue = [540, 238]", fillcolor="#f0b990"] ;
112 -> 369 ;
585 [label="duration <= 25.5\ngini = 0.406\nsamples = 661\nvalue = [474, 187]", fillcolor="#efb387"] ;
369 -> 585 ;
587 [label="gini = 0.481\nsamples = 132\nvalue = [79, 53]", fillcolor="#f6d6be"] ;
585 -> 587 ;
588 [label="gini = 0.378\nsamples = 529\nvalue = [395, 134]", fillcolor="#eeac7c"] ;
585 -> 588 ;
586 [label="convert_goal <= 932.389\ngini = 0.492\nsamples = 117\nvalue = [66, 51]", fillcolor="#f9e2d2"] ;
369 -> 586 ;
941 [label="gini = 0.153\nsamples = 12\nvalue = [11, 1]", fillcolor="#e78c4b"] ;
586 -> 941 ;
942 [label="month_project <= 10.5\ngini = 0.499\nsamples = 105\nvalue = [55, 50]", fillcolor="#fdf4ed"] ;
586 -> 942 ;
943 [label="gini = 0.499\nsamples = 94\nvalue = [45, 49]", fillcolor="#eff7fd"] ;
942 -> 943 ;
944 [label="gini = 0.165\nsamples = 11\nvalue = [10, 1]", fillcolor="#e88e4d"] ;
942 -> 944 ;
370 [label="gini = 0.207\nsamples = 128\nvalue = [113, 15]", fillcolor="#e89253"] ;
112 -> 370 ;
48 [label="gini = 0.0\nsamples = 1253\nvalue = [0, 1253]", fillcolor="#399de5"] ;
45 -> 48 ;
46 [label="convert_goal <= 2508.865\ngini = 0.426\nsamples = 1136\nvalue = [786, 350]", fillcolor="#f1b991"] ;
44 -> 46 ;
155 [label="convert_goal <= 68.798\ngini = 0.496\nsamples = 402\nvalue = [218, 184]", fillcolor="#fbebe0"] ;
46 -> 155 ;
535 [label="gini = 0.231\nsamples = 15\nvalue = [2, 13]", fillcolor="#57ace9"] ;
155 -> 535 ;
536 [label="duration <= 9.0\ngini = 0.493\nsamples = 387\nvalue = [216, 171]", fillcolor="#fae5d6"] ;
155 -> 536 ;
773 [label="gini = 0.0\nsamples = 6\nvalue = [0, 6]", fillcolor="#399de5"] ;
536 -> 773 ;
774 [label="gini = 0.491\nsamples = 381\nvalue = [216, 165]", fillcolor="#f9e1d0"] ;
536 -> 774 ;
156 [label="gini = 0.35\nsamples = 734\nvalue = [568, 166]", fillcolor="#eda673"] ;
46 -> 156 ;
42 [label="subcategy_id <= 32.5\ngini = 0.175\nsamples = 5418\nvalue = [526, 4892]", fillcolor="#4ea8e8"] ;
39 -> 42 ;
59 [label="subcategy_id <= 31.5\ngini = 0.068\nsamples = 3889\nvalue = [137, 3752]", fillcolor="#40a1e6"] ;
42 -> 59 ;
459 [label="subcategy_id <= 30.5\ngini = 0.11\nsamples = 2346\nvalue = [137, 2209]", fillcolor="#45a3e7"] ;
59 -> 459 ;
461 [label="gini = 0.0\nsamples = 1031\nvalue = [0, 1031]", fillcolor="#399de5"] ;
459 -> 461 ;
462 [label="country_US <= 0.5\ngini = 0.187\nsamples = 1315\nvalue = [137, 1178]", fillcolor="#50a8e8"] ;
459 -> 462 ;
463 [label="country_GB <= 0.5\ngini = 0.402\nsamples = 158\nvalue = [44, 114]", fillcolor="#85c3ef"] ;
462 -> 463 ;
533 [label="country_CA <= 0.5\ngini = 0.496\nsamples = 55\nvalue = [25, 30]", fillcolor="#deeffb"] ;
463 -> 533 ;
837 [label="gini = 0.475\nsamples = 31\nvalue = [19, 12]", fillcolor="#f5d1b6"] ;
533 -> 837 ;
838 [label="gini = 0.375\nsamples = 24\nvalue = [6, 18]", fillcolor="#7bbeee"] ;
533 -> 838 ;
534 [label="gini = 0.301\nsamples = 103\nvalue = [19, 84]", fillcolor="#66b3eb"] ;
463 -> 534 ;
464 [label="gini = 0.148\nsamples = 1157\nvalue = [93, 1064]", fillcolor="#4aa6e7"] ;
462 -> 464 ;
460 [label="gini = 0.0\nsamples = 1543\nvalue = [0, 1543]", fillcolor="#399de5"] ;
59 -> 460 ;
60 [label="country_US <= 0.5\ngini = 0.379\nsamples = 1529\nvalue = [389, 1140]", fillcolor="#7dbeee"] ;
42 -> 60 ;
167 [label="convert_goal <= 3162.559\ngini = 0.497\nsamples = 248\nvalue = [114, 134]", fillcolor="#e1f0fb"] ;
60 -> 167 ;
405 [label="country_GB <= 0.5\ngini = 0.451\nsamples = 128\nvalue = [44, 84]", fillcolor="#a1d0f3"] ;
167 -> 405 ;
507 [label="gini = 0.499\nsamples = 71\nvalue = [34, 37]", fillcolor="#eff7fd"] ;
405 -> 507 ;
508 [label="gini = 0.289\nsamples = 57\nvalue = [10, 47]", fillcolor="#63b2eb"] ;
405 -> 508 ;
406 [label="month_project <= 4.5\ngini = 0.486\nsamples = 120\nvalue = [70, 50]", fillcolor="#f8dbc6"] ;
167 -> 406 ;
733 [label="country_MX <= 0.5\ngini = 0.478\nsamples = 38\nvalue = [15, 23]", fillcolor="#baddf6"] ;
406 -> 733 ;
971 [label="country_IT <= 0.5\ngini = 0.438\nsamples = 34\nvalue = [11, 23]", fillcolor="#98ccf1"] ;
733 -> 971 ;
973 [label="gini = 0.358\nsamples = 30\nvalue = [7, 23]", fillcolor="#75bbed"] ;
971 -> 973 ;
974 [label="gini = 0.0\nsamples = 4\nvalue = [4, 0]", fillcolor="#e58139"] ;
971 -> 974 ;
972 [label="gini = 0.0\nsamples = 4\nvalue = [4, 0]", fillcolor="#e58139"] ;
733 -> 972 ;
734 [label="gini = 0.442\nsamples = 82\nvalue = [55, 27]", fillcolor="#f2bf9a"] ;
406 -> 734 ;
168 [label="convert_goal <= 4527.0\ngini = 0.337\nsamples = 1281\nvalue = [275, 1006]", fillcolor="#6fb8ec"] ;
60 -> 168 ;
407 [label="gini = 0.279\nsamples = 715\nvalue = [120, 595]", fillcolor="#61b1ea"] ;
168 -> 407 ;
408 [label="month_project <= 6.5\ngini = 0.398\nsamples = 566\nvalue = [155, 411]", fillcolor="#84c2ef"] ;
168 -> 408 ;
633 [label="gini = 0.332\nsamples = 276\nvalue = [58, 218]", fillcolor="#6eb7ec"] ;
408 -> 633 ;
634 [label="duration <= 44.0\ngini = 0.445\nsamples = 290\nvalue = [97, 193]", fillcolor="#9dcef2"] ;
408 -> 634 ;
635 [label="weekday <= 2.5\ngini = 0.408\nsamples = 249\nvalue = [71, 178]", fillcolor="#88c4ef"] ;
634 -> 635 ;
637 [label="gini = 0.318\nsamples = 141\nvalue = [28, 113]", fillcolor="#6ab5eb"] ;
635 -> 637 ;
638 [label="gini = 0.479\nsamples = 108\nvalue = [43, 65]", fillcolor="#bcdef6"] ;
635 -> 638 ;
636 [label="gini = 0.464\nsamples = 41\nvalue = [26, 15]", fillcolor="#f4caab"] ;
634 -> 636 ;
40 [label="subcategy_id <= 35.5\ngini = 0.116\nsamples = 8292\nvalue = [514, 7778]", fillcolor="#46a3e7"] ;
19 -> 40 ;
117 [label="subcategy_id <= 13.5\ngini = 0.045\nsamples = 5114\nvalue = [119, 4995]", fillcolor="#3e9fe6"] ;
40 -> 117 ;
121 [label="convert_goal <= 4900.0\ngini = 0.38\nsamples = 467\nvalue = [119, 348]", fillcolor="#7dbfee"] ;
117 -> 121 ;
345 [label="duration <= 27.5\ngini = 0.305\nsamples = 314\nvalue = [59, 255]", fillcolor="#67b4eb"] ;
121 -> 345 ;
619 [label="gini = 0.116\nsamples = 97\nvalue = [6, 91]", fillcolor="#46a3e7"] ;
345 -> 619 ;
620 [label="gini = 0.369\nsamples = 217\nvalue = [53, 164]", fillcolor="#79bded"] ;
345 -> 620 ;
346 [label="month_project <= 9.5\ngini = 0.477\nsamples = 153\nvalue = [60, 93]", fillcolor="#b9dcf6"] ;
121 -> 346 ;
639 [label="category_id <= 12.5\ngini = 0.497\nsamples = 115\nvalue = [53, 62]", fillcolor="#e2f1fb"] ;
346 -> 639 ;
809 [label="gini = 0.0\nsamples = 8\nvalue = [0, 8]", fillcolor="#399de5"] ;
639 -> 809 ;
810 [label="country_US <= 0.5\ngini = 0.5\nsamples = 107\nvalue = [53, 54]", fillcolor="#fbfdff"] ;
639 -> 810 ;
811 [label="gini = 0.34\nsamples = 23\nvalue = [18, 5]", fillcolor="#eca470"] ;
810 -> 811 ;
812 [label="gini = 0.486\nsamples = 84\nvalue = [35, 49]", fillcolor="#c6e3f8"] ;
810 -> 812 ;
640 [label="gini = 0.301\nsamples = 38\nvalue = [7, 31]", fillcolor="#66b3eb"] ;
346 -> 640 ;
122 [label="gini = 0.0\nsamples = 4647\nvalue = [0, 4647]", fillcolor="#399de5"] ;
117 -> 122 ;
118 [label="subcategy_id <= 36.5\ngini = 0.218\nsamples = 3178\nvalue = [395, 2783]", fillcolor="#55abe9"] ;
40 -> 118 ;
119 [label="country_US <= 0.5\ngini = 0.376\nsamples = 1576\nvalue = [395, 1181]", fillcolor="#7bbeee"] ;
118 -> 119 ;
217 [label="country_GB <= 0.5\ngini = 0.481\nsamples = 300\nvalue = [121, 179]", fillcolor="#bfdff7"] ;
119 -> 217 ;
299 [label="country_CA <= 0.5\ngini = 0.498\nsamples = 150\nvalue = [80, 70]", fillcolor="#fcefe6"] ;
217 -> 299 ;
441 [label="weekday <= 5.5\ngini = 0.469\nsamples = 109\nvalue = [68, 41]", fillcolor="#f5cdb0"] ;
299 -> 441 ;
727 [label="month_project <= 11.5\ngini = 0.444\nsamples = 99\nvalue = [66, 33]", fillcolor="#f2c09c"] ;
441 -> 727 ;
729 [label="country_FR <= 0.5\ngini = 0.415\nsamples = 92\nvalue = [65, 27]", fillcolor="#f0b58b"] ;
727 -> 729 ;
731 [label="gini = 0.386\nsamples = 88\nvalue = [65, 23]", fillcolor="#eeae7f"] ;
729 -> 731 ;
732 [label="gini = 0.0\nsamples = 4\nvalue = [0, 4]", fillcolor="#399de5"] ;
729 -> 732 ;
730 [label="gini = 0.245\nsamples = 7\nvalue = [1, 6]", fillcolor="#5aade9"] ;
727 -> 730 ;
728 [label="gini = 0.32\nsamples = 10\nvalue = [2, 8]", fillcolor="#6ab6ec"] ;
441 -> 728 ;
442 [label="gini = 0.414\nsamples = 41\nvalue = [12, 29]", fillcolor="#8bc6f0"] ;
299 -> 442 ;
300 [label="gini = 0.397\nsamples = 150\nvalue = [41, 109]", fillcolor="#83c2ef"] ;
217 -> 300 ;
218 [label="convert_goal <= 9250.0\ngini = 0.337\nsamples = 1276\nvalue = [274, 1002]", fillcolor="#6fb8ec"] ;
119 -> 218 ;
325 [label="duration <= 4.5\ngini = 0.308\nsamples = 1093\nvalue = [208, 885]", fillcolor="#68b4eb"] ;
218 -> 325 ;
327 [label="gini = 0.0\nsamples = 7\nvalue = [7, 0]", fillcolor="#e58139"] ;
325 -> 327 ;
328 [label="gini = 0.302\nsamples = 1086\nvalue = [201, 885]", fillcolor="#66b3eb"] ;
325 -> 328 ;
326 [label="gini = 0.461\nsamples = 183\nvalue = [66, 117]", fillcolor="#a9d4f4"] ;
218 -> 326 ;
120 [label="gini = 0.0\nsamples = 1602\nvalue = [0, 1602]", fillcolor="#399de5"] ;
118 -> 120 ;
20 [label="subcategy_id <= 39.5\ngini = 0.455\nsamples = 11878\nvalue = [4165, 7713]", fillcolor="#a4d2f3"] ;
17 -> 20 ;
21 [label="convert_goal <= 4550.332\ngini = 0.427\nsamples = 3073\nvalue = [2125, 948]", fillcolor="#f1b991"] ;
20 -> 21 ;
103 [label="duration <= 28.5\ngini = 0.465\nsamples = 2075\nvalue = [1311, 764]", fillcolor="#f4caac"] ;
21 -> 103 ;
267 [label="convert_goal <= 325.69\ngini = 0.499\nsamples = 435\nvalue = [229, 206]", fillcolor="#fcf2eb"] ;
103 -> 267 ;
785 [label="gini = 0.468\nsamples = 67\nvalue = [25, 42]", fillcolor="#afd7f4"] ;
267 -> 785 ;
786 [label="gini = 0.494\nsamples = 368\nvalue = [204, 164]", fillcolor="#fae6d8"] ;
267 -> 786 ;
268 [label="weekday <= 3.5\ngini = 0.449\nsamples = 1640\nvalue = [1082, 558]", fillcolor="#f2c29f"] ;
103 -> 268 ;
615 [label="gini = 0.464\nsamples = 1110\nvalue = [704, 406]", fillcolor="#f4caab"] ;
268 -> 615 ;
616 [label="gini = 0.409\nsamples = 530\nvalue = [378, 152]", fillcolor="#efb489"] ;
268 -> 616 ;
104 [label="duration <= 50.5\ngini = 0.301\nsamples = 998\nvalue = [814, 184]", fillcolor="#eb9d66"] ;
21 -> 104 ;
549 [label="subcategy_id <= 38.5\ngini = 0.329\nsamples = 818\nvalue = [648, 170]", fillcolor="#eca26d"] ;
104 -> 549 ;
605 [label="gini = 0.396\nsamples = 327\nvalue = [238, 89]", fillcolor="#efb083"] ;
549 -> 605 ;
606 [label="convert_goal <= 8622.862\ngini = 0.276\nsamples = 491\nvalue = [410, 81]", fillcolor="#ea9a60"] ;
549 -> 606 ;
959 [label="gini = 0.34\nsamples = 272\nvalue = [213, 59]", fillcolor="#eca470"] ;
606 -> 959 ;
960 [label="gini = 0.181\nsamples = 219\nvalue = [197, 22]", fillcolor="#e88f4f"] ;
606 -> 960 ;
550 [label="gini = 0.143\nsamples = 180\nvalue = [166, 14]", fillcolor="#e78c4a"] ;
104 -> 550 ;
22 [label="subcategy_id <= 43.5\ngini = 0.356\nsamples = 8805\nvalue = [2040, 6765]", fillcolor="#75bbed"] ;
20 -> 22 ;
27 [label="subcategy_id <= 42.5\ngini = 0.254\nsamples = 6321\nvalue = [945, 5376]", fillcolor="#5caeea"] ;
22 -> 27 ;
63 [label="subcategy_id <= 40.5\ngini = 0.325\nsamples = 4624\nvalue = [945, 3679]", fillcolor="#6cb6ec"] ;
27 -> 63 ;
65 [label="gini = 0.0\nsamples = 1677\nvalue = [0, 1677]", fillcolor="#399de5"] ;
63 -> 65 ;
66 [label="convert_goal <= 7526.588\ngini = 0.436\nsamples = 2947\nvalue = [945, 2002]", fillcolor="#96cbf1"] ;
63 -> 66 ;
191 [label="country_US <= 0.5\ngini = 0.41\nsamples = 2277\nvalue = [655, 1622]", fillcolor="#89c5ef"] ;
66 -> 191 ;
205 [label="convert_goal <= 5105.91\ngini = 0.49\nsamples = 390\nvalue = [168, 222]", fillcolor="#cfe7f9"] ;
191 -> 205 ;
427 [label="country_DK <= 0.5\ngini = 0.475\nsamples = 322\nvalue = [125, 197]", fillcolor="#b7dbf5"] ;
205 -> 427 ;
781 [label="convert_goal <= 2386.044\ngini = 0.481\nsamples = 310\nvalue = [125, 185]", fillcolor="#bfdff7"] ;
427 -> 781 ;
793 [label="weekday <= 5.5\ngini = 0.498\nsamples = 179\nvalue = [84, 95]", fillcolor="#e8f4fc"] ;
781 -> 793 ;
795 [label="gini = 0.5\nsamples = 166\nvalue = [83, 83]", fillcolor="#ffffff"] ;
793 -> 795 ;
796 [label="gini = 0.142\nsamples = 13\nvalue = [1, 12]", fillcolor="#49a5e7"] ;
793 -> 796 ;
794 [label="gini = 0.43\nsamples = 131\nvalue = [41, 90]", fillcolor="#93caf1"] ;
781 -> 794 ;
782 [label="gini = 0.0\nsamples = 12\nvalue = [0, 12]", fillcolor="#399de5"] ;
427 -> 782 ;
428 [label="gini = 0.465\nsamples = 68\nvalue = [43, 25]", fillcolor="#f4caac"] ;
205 -> 428 ;
206 [label="duration <= 52.5\ngini = 0.383\nsamples = 1887\nvalue = [487, 1400]", fillcolor="#7ebfee"] ;
191 -> 206 ;
247 [label="subcategy_id <= 41.5\ngini = 0.36\nsamples = 1662\nvalue = [392, 1270]", fillcolor="#76bbed"] ;
206 -> 247 ;
361 [label="gini = 0.412\nsamples = 740\nvalue = [215, 525]", fillcolor="#8ac5f0"] ;
247 -> 361 ;
362 [label="gini = 0.31\nsamples = 922\nvalue = [177, 745]", fillcolor="#68b4eb"] ;
247 -> 362 ;
248 [label="gini = 0.488\nsamples = 225\nvalue = [95, 130]", fillcolor="#cae5f8"] ;
206 -> 248 ;
192 [label="duration <= 14.5\ngini = 0.491\nsamples = 670\nvalue = [290, 380]", fillcolor="#d0e8f9"] ;
66 -> 192 ;
503 [label="gini = 0.0\nsamples = 9\nvalue = [9, 0]", fillcolor="#e58139"] ;
192 -> 503 ;
504 [label="month_project <= 1.5\ngini = 0.489\nsamples = 661\nvalue = [281, 380]", fillcolor="#cbe5f8"] ;
192 -> 504 ;
935 [label="convert_goal <= 9576.914\ngini = 0.476\nsamples = 46\nvalue = [28, 18]", fillcolor="#f6d2b8"] ;
504 -> 935 ;
939 [label="gini = 0.0\nsamples = 9\nvalue = [9, 0]", fillcolor="#e58139"] ;
935 -> 939 ;
940 [label="gini = 0.5\nsamples = 37\nvalue = [19, 18]", fillcolor="#fef8f5"] ;
935 -> 940 ;
936 [label="duration <= 49.5\ngini = 0.484\nsamples = 615\nvalue = [253, 362]", fillcolor="#c3e1f7"] ;
504 -> 936 ;
937 [label="convert_goal <= 14250.0\ngini = 0.474\nsamples = 511\nvalue = [197, 314]", fillcolor="#b5daf5"] ;
936 -> 937 ;
1011 [label="gini = 0.454\nsamples = 356\nvalue = [124, 232]", fillcolor="#a3d1f3"] ;
937 -> 1011 ;
1012 [label="month_project <= 8.5\ngini = 0.498\nsamples = 155\nvalue = [73, 82]", fillcolor="#e9f4fc"] ;
937 -> 1012 ;
1013 [label="gini = 0.466\nsamples = 92\nvalue = [34, 58]", fillcolor="#add6f4"] ;
1012 -> 1013 ;
1014 [label="convert_goal <= 17548.5\ngini = 0.472\nsamples = 63\nvalue = [39, 24]", fillcolor="#f5cfb3"] ;
1012 -> 1014 ;
1015 [label="gini = 0.334\nsamples = 33\nvalue = [26, 7]", fillcolor="#eca36e"] ;
1014 -> 1015 ;
1016 [label="gini = 0.491\nsamples = 30\nvalue = [13, 17]", fillcolor="#d0e8f9"] ;
1014 -> 1016 ;
938 [label="gini = 0.497\nsamples = 104\nvalue = [56, 48]", fillcolor="#fbede3"] ;
936 -> 938 ;
64 [label="gini = 0.0\nsamples = 1697\nvalue = [0, 1697]", fillcolor="#399de5"] ;
27 -> 64 ;
28 [label="convert_goal <= 8021.885\ngini = 0.493\nsamples = 2484\nvalue = [1095, 1389]", fillcolor="#d5eaf9"] ;
22 -> 28 ;
157 [label="duration <= 58.5\ngini = 0.48\nsamples = 1923\nvalue = [771, 1152]", fillcolor="#bedff6"] ;
28 -> 157 ;
241 [label="category_id <= 16.0\ngini = 0.472\nsamples = 1743\nvalue = [665, 1078]", fillcolor="#b3d9f5"] ;
157 -> 241 ;
343 [label="month_project <= 11.5\ngini = 0.49\nsamples = 935\nvalue = [400, 535]", fillcolor="#cde6f8"] ;
241 -> 343 ;
553 [label="country_US <= 0.5\ngini = 0.486\nsamples = 889\nvalue = [370, 519]", fillcolor="#c6e3f8"] ;
343 -> 553 ;
555 [label="gini = 0.498\nsamples = 150\nvalue = [80, 70]", fillcolor="#fcefe6"] ;
553 -> 555 ;
556 [label="duration <= 12.5\ngini = 0.477\nsamples = 739\nvalue = [290, 449]", fillcolor="#b9dcf6"] ;
553 -> 556 ;
1039 [label="gini = 0.454\nsamples = 23\nvalue = [15, 8]", fillcolor="#f3c4a3"] ;
556 -> 1039 ;
1040 [label="gini = 0.473\nsamples = 716\nvalue = [275, 441]", fillcolor="#b4daf5"] ;
556 -> 1040 ;
554 [label="gini = 0.454\nsamples = 46\nvalue = [30, 16]", fillcolor="#f3c4a3"] ;
343 -> 554 ;
344 [label="duration <= 28.5\ngini = 0.441\nsamples = 808\nvalue = [265, 543]", fillcolor="#9acdf2"] ;
241 -> 344 ;
423 [label="gini = 0.342\nsamples = 210\nvalue = [46, 164]", fillcolor="#71b8ec"] ;
344 -> 423 ;
424 [label="country_US <= 0.5\ngini = 0.464\nsamples = 598\nvalue = [219, 379]", fillcolor="#abd6f4"] ;
344 -> 424 ;
697 [label="gini = 0.497\nsamples = 162\nvalue = [75, 87]", fillcolor="#e4f1fb"] ;
424 -> 697 ;
698 [label="gini = 0.442\nsamples = 436\nvalue = [144, 292]", fillcolor="#9bcdf2"] ;
424 -> 698 ;
242 [label="month_project <= 6.5\ngini = 0.484\nsamples = 180\nvalue = [106, 74]", fillcolor="#f7d9c3"] ;
157 -> 242 ;
591 [label="gini = 0.428\nsamples = 100\nvalue = [69, 31]", fillcolor="#f1ba92"] ;
242 -> 591 ;
592 [label="convert_goal <= 1343.5\ngini = 0.497\nsamples = 80\nvalue = [37, 43]", fillcolor="#e3f1fb"] ;
242 -> 592 ;
713 [label="gini = 0.278\nsamples = 18\nvalue = [3, 15]", fillcolor="#61b1ea"] ;
592 -> 713 ;
714 [label="gini = 0.495\nsamples = 62\nvalue = [34, 28]", fillcolor="#fae9dc"] ;
592 -> 714 ;
158 [label="country_US <= 0.5\ngini = 0.488\nsamples = 561\nvalue = [324, 237]", fillcolor="#f8ddca"] ;
28 -> 158 ;
399 [label="gini = 0.386\nsamples = 111\nvalue = [82, 29]", fillcolor="#eeae7f"] ;
158 -> 399 ;
400 [label="category_id <= 16.0\ngini = 0.497\nsamples = 450\nvalue = [242, 208]", fillcolor="#fbede3"] ;
158 -> 400 ;
467 [label="convert_goal <= 17888.5\ngini = 0.477\nsamples = 265\nvalue = [161, 104]", fillcolor="#f6d2b9"] ;
400 -> 467 ;
777 [label="gini = 0.49\nsamples = 224\nvalue = [128, 96]", fillcolor="#f8e0ce"] ;
467 -> 777 ;
778 [label="gini = 0.314\nsamples = 41\nvalue = [33, 8]", fillcolor="#eba069"] ;
467 -> 778 ;
468 [label="duration <= 59.5\ngini = 0.492\nsamples = 185\nvalue = [81, 104]", fillcolor="#d3e9f9"] ;
400 -> 468 ;
769 [label="gini = 0.485\nsamples = 176\nvalue = [73, 103]", fillcolor="#c5e2f7"] ;
468 -> 769 ;
770 [label="gini = 0.198\nsamples = 9\nvalue = [8, 1]", fillcolor="#e89152"] ;
468 -> 770 ;
18 [label="gini = 0.0\nsamples = 4538\nvalue = [0, 4538]", fillcolor="#399de5"] ;
14 -> 18 ;
12 [label="category_id <= 11.5\ngini = 0.484\nsamples = 15536\nvalue = [6372, 9164]", fillcolor="#c3e1f7"] ;
7 -> 12 ;
15 [label="convert_goal <= 4602.249\ngini = 0.441\nsamples = 10907\nvalue = [3574, 7333]", fillcolor="#9acdf2"] ;
12 -> 15 ;
35 [label="category_id <= 2.0\ngini = 0.39\nsamples = 7357\nvalue = [1952, 5405]", fillcolor="#81c0ee"] ;
15 -> 35 ;
79 [label="subcategy_id <= 53.5\ngini = 0.468\nsamples = 2034\nvalue = [758, 1276]", fillcolor="#afd7f4"] ;
35 -> 79 ;
109 [label="country_US <= 0.5\ngini = 0.382\nsamples = 914\nvalue = [235, 679]", fillcolor="#7ebfee"] ;
79 -> 109 ;
219 [label="country_MX <= 0.5\ngini = 0.499\nsamples = 144\nvalue = [69, 75]", fillcolor="#eff7fd"] ;
109 -> 219 ;
911 [label="gini = 0.496\nsamples = 138\nvalue = [63, 75]", fillcolor="#dfeffb"] ;
219 -> 911 ;
912 [label="gini = 0.0\nsamples = 6\nvalue = [6, 0]", fillcolor="#e58139"] ;
219 -> 912 ;
220 [label="duration <= 25.5\ngini = 0.338\nsamples = 770\nvalue = [166, 604]", fillcolor="#6fb8ec"] ;
109 -> 220 ;
735 [label="gini = 0.254\nsamples = 282\nvalue = [42, 240]", fillcolor="#5caeea"] ;
220 -> 735 ;
736 [label="month_project <= 2.5\ngini = 0.379\nsamples = 488\nvalue = [124, 364]", fillcolor="#7cbeee"] ;
220 -> 736 ;
805 [label="gini = 0.483\nsamples = 66\nvalue = [27, 39]", fillcolor="#c2e1f7"] ;
736 -> 805 ;
806 [label="month_project <= 7.5\ngini = 0.354\nsamples = 422\nvalue = [97, 325]", fillcolor="#74baed"] ;
736 -> 806 ;
905 [label="gini = 0.292\nsamples = 253\nvalue = [45, 208]", fillcolor="#64b2eb"] ;
806 -> 905 ;
906 [label="gini = 0.426\nsamples = 169\nvalue = [52, 117]", fillcolor="#91c9f1"] ;
806 -> 906 ;
110 [label="convert_goal <= 853.216\ngini = 0.498\nsamples = 1120\nvalue = [523, 597]", fillcolor="#e6f3fc"] ;
79 -> 110 ;
229 [label="month_project <= 8.5\ngini = 0.465\nsamples = 465\nvalue = [171, 294]", fillcolor="#acd6f4"] ;
110 -> 229 ;
783 [label="gini = 0.484\nsamples = 322\nvalue = [132, 190]", fillcolor="#c3e1f7"] ;
229 -> 783 ;
784 [label="country_GB <= 0.5\ngini = 0.397\nsamples = 143\nvalue = [39, 104]", fillcolor="#83c2ef"] ;
229 -> 784 ;
833 [label="gini = 0.352\nsamples = 123\nvalue = [28, 95]", fillcolor="#73baed"] ;
784 -> 833 ;
834 [label="gini = 0.495\nsamples = 20\nvalue = [11, 9]", fillcolor="#fae8db"] ;
784 -> 834 ;
230 [label="country_US <= 0.5\ngini = 0.497\nsamples = 655\nvalue = [352, 303]", fillcolor="#fbede3"] ;
110 -> 230 ;
397 [label="gini = 0.446\nsamples = 167\nvalue = [111, 56]", fillcolor="#f2c19d"] ;
230 -> 397 ;
398 [label="convert_goal <= 2550.0\ngini = 0.5\nsamples = 488\nvalue = [241, 247]", fillcolor="#fafdfe"] ;
230 -> 398 ;
547 [label="gini = 0.493\nsamples = 323\nvalue = [143, 180]", fillcolor="#d6ebfa"] ;
398 -> 547 ;
548 [label="gini = 0.482\nsamples = 165\nvalue = [98, 67]", fillcolor="#f7d7c0"] ;
398 -> 548 ;
80 [label="subcategy_id <= 250.5\ngini = 0.348\nsamples = 5323\nvalue = [1194, 4129]", fillcolor="#72b9ed"] ;
35 -> 80 ;
81 [label="subcategy_id <= 249.5\ngini = 0.051\nsamples = 1477\nvalue = [39, 1438]", fillcolor="#3ea0e6"] ;
80 -> 81 ;
237 [label="gini = 0.333\nsamples = 185\nvalue = [39, 146]", fillcolor="#6eb7ec"] ;
81 -> 237 ;
238 [label="gini = 0.0\nsamples = 1292\nvalue = [0, 1292]", fillcolor="#399de5"] ;
81 -> 238 ;
82 [label="category_id <= 8.0\ngini = 0.42\nsamples = 3846\nvalue = [1155, 2691]", fillcolor="#8ec7f0"] ;
80 -> 82 ;
83 [label="subcategy_id <= 255.5\ngini = 0.482\nsamples = 1946\nvalue = [789, 1157]", fillcolor="#c0e0f7"] ;
82 -> 83 ;
199 [label="duration <= 39.5\ngini = 0.464\nsamples = 1500\nvalue = [549, 951]", fillcolor="#abd6f4"] ;
83 -> 199 ;
261 [label="convert_goal <= 99.5\ngini = 0.448\nsamples = 1270\nvalue = [430, 840]", fillcolor="#9ecff2"] ;
199 -> 261 ;
481 [label="category_id <= 4.5\ngini = 0.159\nsamples = 46\nvalue = [4, 42]", fillcolor="#4ca6e7"] ;
261 -> 481 ;
513 [label="gini = 0.0\nsamples = 41\nvalue = [0, 41]", fillcolor="#399de5"] ;
481 -> 513 ;
514 [label="gini = 0.32\nsamples = 5\nvalue = [4, 1]", fillcolor="#eca06a"] ;
481 -> 514 ;
482 [label="duration <= 30.5\ngini = 0.454\nsamples = 1224\nvalue = [426, 798]", fillcolor="#a3d1f3"] ;
261 -> 482 ;
483 [label="duration <= 28.5\ngini = 0.466\nsamples = 1031\nvalue = [381, 650]", fillcolor="#add6f4"] ;
482 -> 483 ;
485 [label="gini = 0.404\nsamples = 352\nvalue = [99, 253]", fillcolor="#86c3ef"] ;
483 -> 485 ;
486 [label="gini = 0.486\nsamples = 679\nvalue = [282, 397]", fillcolor="#c6e3f7"] ;
483 -> 486 ;
484 [label="duration <= 32.5\ngini = 0.358\nsamples = 193\nvalue = [45, 148]", fillcolor="#75bbed"] ;
482 -> 484 ;
951 [label="gini = 0.209\nsamples = 76\nvalue = [9, 67]", fillcolor="#54aae8"] ;
484 -> 951 ;
952 [label="gini = 0.426\nsamples = 117\nvalue = [36, 81]", fillcolor="#91c9f1"] ;
484 -> 952 ;
262 [label="subcategy_id <= 253.5\ngini = 0.499\nsamples = 230\nvalue = [119, 111]", fillcolor="#fdf7f2"] ;
199 -> 262 ;
381 [label="convert_goal <= 177.651\ngini = 0.478\nsamples = 157\nvalue = [95, 62]", fillcolor="#f6d3ba"] ;
262 -> 381 ;
683 [label="gini = 0.298\nsamples = 11\nvalue = [2, 9]", fillcolor="#65b3eb"] ;
381 -> 683 ;
684 [label="gini = 0.462\nsamples = 146\nvalue = [93, 53]", fillcolor="#f4c9aa"] ;
381 -> 684 ;
382 [label="gini = 0.441\nsamples = 73\nvalue = [24, 49]", fillcolor="#9acdf2"] ;
262 -> 382 ;
200 [label="convert_goal <= 1005.355\ngini = 0.497\nsamples = 446\nvalue = [240, 206]", fillcolor="#fbede3"] ;
83 -> 200 ;
357 [label="country_MX <= 0.5\ngini = 0.488\nsamples = 178\nvalue = [75, 103]", fillcolor="#c9e4f8"] ;
200 -> 357 ;
899 [label="gini = 0.482\nsamples = 173\nvalue = [70, 103]", fillcolor="#c0e0f7"] ;
357 -> 899 ;
900 [label="gini = 0.0\nsamples = 5\nvalue = [5, 0]", fillcolor="#e58139"] ;
357 -> 900 ;
358 [label="duration <= 24.5\ngini = 0.473\nsamples = 268\nvalue = [165, 103]", fillcolor="#f5d0b5"] ;
200 -> 358 ;
517 [label="gini = 0.478\nsamples = 48\nvalue = [19, 29]", fillcolor="#bbddf6"] ;
358 -> 517 ;
518 [label="subcategy_id <= 259.5\ngini = 0.446\nsamples = 220\nvalue = [146, 74]", fillcolor="#f2c19d"] ;
358 -> 518 ;
779 [label="gini = 0.478\nsamples = 157\nvalue = [95, 62]", fillcolor="#f6d3ba"] ;
518 -> 779 ;
780 [label="gini = 0.308\nsamples = 63\nvalue = [51, 12]", fillcolor="#eb9f68"] ;
518 -> 780 ;
84 [label="month_project <= 5.5\ngini = 0.311\nsamples = 1900\nvalue = [366, 1534]", fillcolor="#68b4eb"] ;
82 -> 84 ;
161 [label="month_project <= 1.5\ngini = 0.141\nsamples = 628\nvalue = [48, 580]", fillcolor="#49a5e7"] ;
84 -> 161 ;
329 [label="gini = 0.325\nsamples = 191\nvalue = [39, 152]", fillcolor="#6cb6ec"] ;
161 -> 329 ;
330 [label="gini = 0.04\nsamples = 437\nvalue = [9, 428]", fillcolor="#3d9fe6"] ;
161 -> 330 ;
162 [label="convert_goal <= 266.099\ngini = 0.375\nsamples = 1272\nvalue = [318, 954]", fillcolor="#7bbeee"] ;
84 -> 162 ;
323 [label="gini = 0.186\nsamples = 183\nvalue = [19, 164]", fillcolor="#50a8e8"] ;
162 -> 323 ;
324 [label="subcategy_id <= 262.5\ngini = 0.398\nsamples = 1089\nvalue = [299, 790]", fillcolor="#84c2ef"] ;
162 -> 324 ;
401 [label="gini = 0.352\nsamples = 654\nvalue = [149, 505]", fillcolor="#73baed"] ;
324 -> 401 ;
402 [label="country_MX <= 0.5\ngini = 0.452\nsamples = 435\nvalue = [150, 285]", fillcolor="#a1d1f3"] ;
324 -> 402 ;
597 [label="duration <= 43.0\ngini = 0.445\nsamples = 427\nvalue = [143, 284]", fillcolor="#9dcef2"] ;
402 -> 597 ;
617 [label="gini = 0.425\nsamples = 369\nvalue = [113, 256]", fillcolor="#90c8f0"] ;
597 -> 617 ;
618 [label="gini = 0.499\nsamples = 58\nvalue = [30, 28]", fillcolor="#fdf7f2"] ;
597 -> 618 ;
598 [label="gini = 0.219\nsamples = 8\nvalue = [7, 1]", fillcolor="#e99355"] ;
402 -> 598 ;
36 [label="subcategy_id <= 261.5\ngini = 0.496\nsamples = 3550\nvalue = [1622, 1928]", fillcolor="#e0effb"] ;
15 -> 36 ;
37 [label="subcategy_id <= 256.5\ngini = 0.491\nsamples = 2471\nvalue = [1404, 1067]", fillcolor="#f9e1cf"] ;
36 -> 37 ;
77 [label="country_US <= 0.5\ngini = 0.499\nsamples = 2073\nvalue = [1072, 1001]", fillcolor="#fdf7f2"] ;
37 -> 77 ;
171 [label="convert_goal <= 6204.964\ngini = 0.433\nsamples = 366\nvalue = [250, 116]", fillcolor="#f1bb95"] ;
77 -> 171 ;
419 [label="gini = 0.498\nsamples = 107\nvalue = [57, 50]", fillcolor="#fcf0e7"] ;
171 -> 419 ;
420 [label="category_id <= 2.0\ngini = 0.38\nsamples = 259\nvalue = [193, 66]", fillcolor="#eeac7d"] ;
171 -> 420 ;
771 [label="gini = 0.266\nsamples = 114\nvalue = [96, 18]", fillcolor="#ea995e"] ;
420 -> 771 ;
772 [label="gini = 0.443\nsamples = 145\nvalue = [97, 48]", fillcolor="#f2bf9b"] ;
420 -> 772 ;
172 [label="convert_goal <= 9999.5\ngini = 0.499\nsamples = 1707\nvalue = [822, 885]", fillcolor="#f1f8fd"] ;
77 -> 172 ;
223 [label="duration <= 48.5\ngini = 0.49\nsamples = 1067\nvalue = [457, 610]", fillcolor="#cde6f8"] ;
172 -> 223 ;
359 [label="subcategy_id <= 53.5\ngini = 0.483\nsamples = 963\nvalue = [393, 570]", fillcolor="#c2e1f7"] ;
223 -> 359 ;
497 [label="month_project <= 7.5\ngini = 0.422\nsamples = 208\nvalue = [63, 145]", fillcolor="#8fc8f0"] ;
359 -> 497 ;
821 [label="duration <= 15.5\ngini = 0.362\nsamples = 139\nvalue = [33, 106]", fillcolor="#77bced"] ;
497 -> 821 ;
823 [label="gini = 0.463\nsamples = 11\nvalue = [7, 4]", fillcolor="#f4c9aa"] ;
821 -> 823 ;
824 [label="gini = 0.324\nsamples = 128\nvalue = [26, 102]", fillcolor="#6bb6ec"] ;
821 -> 824 ;
822 [label="gini = 0.491\nsamples = 69\nvalue = [30, 39]", fillcolor="#d1e8f9"] ;
497 -> 822 ;
498 [label="subcategy_id <= 249.5\ngini = 0.492\nsamples = 755\nvalue = [330, 425]", fillcolor="#d3e9f9"] ;
359 -> 498 ;
499 [label="gini = 0.478\nsamples = 228\nvalue = [138, 90]", fillcolor="#f6d3ba"] ;
498 -> 499 ;
500 [label="subcategy_id <= 250.5\ngini = 0.463\nsamples = 527\nvalue = [192, 335]", fillcolor="#aad5f4"] ;
498 -> 500 ;
501 [label="gini = 0.0\nsamples = 117\nvalue = [0, 117]", fillcolor="#399de5"] ;
500 -> 501 ;
502 [label="gini = 0.498\nsamples = 410\nvalue = [192, 218]", fillcolor="#e7f3fc"] ;
500 -> 502 ;
360 [label="convert_goal <= 8392.5\ngini = 0.473\nsamples = 104\nvalue = [64, 40]", fillcolor="#f5d0b5"] ;
223 -> 360 ;
929 [label="gini = 0.455\nsamples = 97\nvalue = [63, 34]", fillcolor="#f3c5a4"] ;
360 -> 929 ;
930 [label="gini = 0.245\nsamples = 7\nvalue = [1, 6]", fillcolor="#5aade9"] ;
360 -> 930 ;
224 [label="subcategy_id <= 53.5\ngini = 0.49\nsamples = 640\nvalue = [365, 275]", fillcolor="#f9e0ce"] ;
172 -> 224 ;
433 [label="gini = 0.492\nsamples = 146\nvalue = [64, 82]", fillcolor="#d4e9f9"] ;
224 -> 433 ;
434 [label="category_id <= 2.0\ngini = 0.476\nsamples = 494\nvalue = [301, 193]", fillcolor="#f6d2b8"] ;
224 -> 434 ;
435 [label="gini = 0.346\nsamples = 153\nvalue = [119, 34]", fillcolor="#eca572"] ;
434 -> 435 ;
436 [label="subcategy_id <= 250.5\ngini = 0.498\nsamples = 341\nvalue = [182, 159]", fillcolor="#fcefe6"] ;
434 -> 436 ;
437 [label="gini = 0.169\nsamples = 43\nvalue = [4, 39]", fillcolor="#4da7e8"] ;
436 -> 437 ;
438 [label="duration <= 39.5\ngini = 0.481\nsamples = 298\nvalue = [178, 120]", fillcolor="#f7d6be"] ;
436 -> 438 ;
457 [label="duration <= 30.5\ngini = 0.495\nsamples = 250\nvalue = [138, 112]", fillcolor="#fae7da"] ;
438 -> 457 ;
807 [label="gini = 0.481\nsamples = 196\nvalue = [117, 79]", fillcolor="#f7d6bf"] ;
457 -> 807 ;
808 [label="gini = 0.475\nsamples = 54\nvalue = [21, 33]", fillcolor="#b7dbf6"] ;
457 -> 808 ;
458 [label="gini = 0.278\nsamples = 48\nvalue = [40, 8]", fillcolor="#ea9a61"] ;
438 -> 458 ;
78 [label="duration <= 28.5\ngini = 0.277\nsamples = 398\nvalue = [332, 66]", fillcolor="#ea9a60"] ;
37 -> 78 ;
901 [label="duration <= 23.5\ngini = 0.433\nsamples = 63\nvalue = [43, 20]", fillcolor="#f1bc95"] ;
78 -> 901 ;
903 [label="gini = 0.295\nsamples = 39\nvalue = [32, 7]", fillcolor="#eb9d64"] ;
901 -> 903 ;
904 [label="gini = 0.497\nsamples = 24\nvalue = [11, 13]", fillcolor="#e1f0fb"] ;
901 -> 904 ;
902 [label="gini = 0.237\nsamples = 335\nvalue = [289, 46]", fillcolor="#e99559"] ;
78 -> 902 ;
38 [label="duration <= 52.0\ngini = 0.322\nsamples = 1079\nvalue = [218, 861]", fillcolor="#6bb6ec"] ;
36 -> 38 ;
193 [label="month_project <= 5.5\ngini = 0.287\nsamples = 1000\nvalue = [174, 826]", fillcolor="#63b2ea"] ;
38 -> 193 ;
363 [label="month_project <= 2.5\ngini = 0.157\nsamples = 337\nvalue = [29, 308]", fillcolor="#4ca6e7"] ;
193 -> 363 ;
425 [label="gini = 0.331\nsamples = 134\nvalue = [28, 106]", fillcolor="#6db7ec"] ;
363 -> 425 ;
426 [label="gini = 0.01\nsamples = 203\nvalue = [1, 202]", fillcolor="#3a9de5"] ;
363 -> 426 ;
364 [label="country_IT <= 0.5\ngini = 0.342\nsamples = 663\nvalue = [145, 518]", fillcolor="#70b8ec"] ;
193 -> 364 ;
493 [label="weekday <= 4.5\ngini = 0.331\nsamples = 650\nvalue = [136, 514]", fillcolor="#6db7ec"] ;
364 -> 493 ;
845 [label="gini = 0.309\nsamples = 577\nvalue = [110, 467]", fillcolor="#68b4eb"] ;
493 -> 845 ;
846 [label="convert_goal <= 15024.602\ngini = 0.459\nsamples = 73\nvalue = [26, 47]", fillcolor="#a7d3f3"] ;
493 -> 846 ;
847 [label="gini = 0.398\nsamples = 62\nvalue = [17, 45]", fillcolor="#84c2ef"] ;
846 -> 847 ;
848 [label="gini = 0.298\nsamples = 11\nvalue = [9, 2]", fillcolor="#eb9d65"] ;
846 -> 848 ;
494 [label="gini = 0.426\nsamples = 13\nvalue = [9, 4]", fillcolor="#f1b991"] ;
364 -> 494 ;
194 [label="month_project <= 5.5\ngini = 0.494\nsamples = 79\nvalue = [44, 35]", fillcolor="#fae5d7"] ;
38 -> 194 ;
689 [label="month_project <= 1.5\ngini = 0.408\nsamples = 21\nvalue = [6, 15]", fillcolor="#88c4ef"] ;
194 -> 689 ;
691 [label="gini = 0.375\nsamples = 8\nvalue = [6, 2]", fillcolor="#eeab7b"] ;
689 -> 691 ;
692 [label="gini = 0.0\nsamples = 13\nvalue = [0, 13]", fillcolor="#399de5"] ;
689 -> 692 ;
690 [label="gini = 0.452\nsamples = 58\nvalue = [38, 20]", fillcolor="#f3c3a1"] ;
194 -> 690 ;
16 [label="convert_goal <= 1089.615\ngini = 0.478\nsamples = 4629\nvalue = [2798, 1831]", fillcolor="#f6d3bb"] ;
12 -> 16 ;
71 [label="duration <= 28.5\ngini = 0.493\nsamples = 1155\nvalue = [509, 646]", fillcolor="#d5eaf9"] ;
16 -> 71 ;
355 [label="convert_goal <= 621.038\ngini = 0.449\nsamples = 305\nvalue = [104, 201]", fillcolor="#9fd0f2"] ;
71 -> 355 ;
953 [label="category_id <= 15.0\ngini = 0.408\nsamples = 193\nvalue = [55, 138]", fillcolor="#88c4ef"] ;
355 -> 953 ;
955 [label="duration <= 13.5\ngini = 0.493\nsamples = 25\nvalue = [14, 11]", fillcolor="#f9e4d5"] ;
953 -> 955 ;
957 [label="gini = 0.18\nsamples = 10\nvalue = [9, 1]", fillcolor="#e88f4f"] ;
955 -> 957 ;
958 [label="gini = 0.444\nsamples = 15\nvalue = [5, 10]", fillcolor="#9ccef2"] ;
955 -> 958 ;
956 [label="gini = 0.369\nsamples = 168\nvalue = [41, 127]", fillcolor="#79bded"] ;
953 -> 956 ;
954 [label="month_project <= 10.5\ngini = 0.492\nsamples = 112\nvalue = [49, 63]", fillcolor="#d3e9f9"] ;
355 -> 954 ;
1035 [label="month_project <= 2.5\ngini = 0.5\nsamples = 97\nvalue = [47, 50]", fillcolor="#f3f9fd"] ;
954 -> 1035 ;
1037 [label="gini = 0.363\nsamples = 21\nvalue = [5, 16]", fillcolor="#77bced"] ;
1035 -> 1037 ;
1038 [label="gini = 0.494\nsamples = 76\nvalue = [42, 34]", fillcolor="#fae7d9"] ;
1035 -> 1038 ;
1036 [label="gini = 0.231\nsamples = 15\nvalue = [2, 13]", fillcolor="#57ace9"] ;
954 -> 1036 ;
356 [label="convert_goal <= 2.671\ngini = 0.499\nsamples = 850\nvalue = [405, 445]", fillcolor="#edf6fd"] ;
71 -> 356 ;
593 [label="gini = 0.0\nsamples = 10\nvalue = [0, 10]", fillcolor="#399de5"] ;
356 -> 593 ;
594 [label="convert_goal <= 993.857\ngini = 0.499\nsamples = 840\nvalue = [405, 435]", fillcolor="#f1f8fd"] ;
356 -> 594 ;
1055 [label="country_US <= 0.5\ngini = 0.496\nsamples = 640\nvalue = [293, 347]", fillcolor="#e0f0fb"] ;
594 -> 1055 ;
1057 [label="subcategy_id <= 51.5\ngini = 0.495\nsamples = 180\nvalue = [99, 81]", fillcolor="#fae8db"] ;
1055 -> 1057 ;
1059 [label="gini = 0.453\nsamples = 95\nvalue = [62, 33]", fillcolor="#f3c4a2"] ;
1057 -> 1059 ;
1060 [label="gini = 0.492\nsamples = 85\nvalue = [37, 48]", fillcolor="#d2e9f9"] ;
1057 -> 1060 ;
1058 [label="subcategy_id <= 145.5\ngini = 0.488\nsamples = 460\nvalue = [194, 266]", fillcolor="#c9e4f8"] ;
1055 -> 1058 ;
1065 [label="gini = 0.47\nsamples = 304\nvalue = [115, 189]", fillcolor="#b1d9f5"] ;
1058 -> 1065 ;
1066 [label="gini = 0.5\nsamples = 156\nvalue = [79, 77]", fillcolor="#fefcfa"] ;
1058 -> 1066 ;
1056 [label="category_id <= 17.0\ngini = 0.493\nsamples = 200\nvalue = [112, 88]", fillcolor="#f9e4d5"] ;
594 -> 1056 ;
1061 [label="gini = 0.496\nsamples = 92\nvalue = [42, 50]", fillcolor="#dfeffb"] ;
1056 -> 1061 ;
1062 [label="convert_goal <= 1008.118\ngini = 0.456\nsamples = 108\nvalue = [70, 38]", fillcolor="#f3c5a4"] ;
1056 -> 1062 ;
1063 [label="gini = 0.44\nsamples = 104\nvalue = [70, 34]", fillcolor="#f2be99"] ;
1062 -> 1063 ;
1064 [label="gini = 0.0\nsamples = 4\nvalue = [0, 4]", fillcolor="#399de5"] ;
1062 -> 1064 ;
72 [label="subcategy_id <= 51.5\ngini = 0.45\nsamples = 3474\nvalue = [2289, 1185]", fillcolor="#f2c2a0"] ;
16 -> 72 ;
73 [label="convert_goal <= 4184.342\ngini = 0.371\nsamples = 2073\nvalue = [1562, 511]", fillcolor="#eeaa7a"] ;
72 -> 73 ;
189 [label="subcategy_id <= 49.5\ngini = 0.446\nsamples = 836\nvalue = [555, 281]", fillcolor="#f2c19d"] ;
73 -> 189 ;
377 [label="duration <= 37.5\ngini = 0.496\nsamples = 199\nvalue = [108, 91]", fillcolor="#fbebe0"] ;
189 -> 377 ;
505 [label="gini = 0.499\nsamples = 150\nvalue = [71, 79]", fillcolor="#ebf5fc"] ;
377 -> 505 ;
506 [label="gini = 0.37\nsamples = 49\nvalue = [37, 12]", fillcolor="#edaa79"] ;
377 -> 506 ;
378 [label="country_US <= 0.5\ngini = 0.419\nsamples = 637\nvalue = [447, 190]", fillcolor="#f0b78d"] ;
189 -> 378 ;
393 [label="convert_goal <= 4061.064\ngini = 0.287\nsamples = 173\nvalue = [143, 30]", fillcolor="#ea9b63"] ;
378 -> 393 ;
695 [label="gini = 0.267\nsamples = 170\nvalue = [143, 27]", fillcolor="#ea995e"] ;
393 -> 695 ;
696 [label="gini = 0.0\nsamples = 3\nvalue = [0, 3]", fillcolor="#399de5"] ;
393 -> 696 ;
394 [label="gini = 0.452\nsamples = 464\nvalue = [304, 160]", fillcolor="#f3c3a1"] ;
378 -> 394 ;
190 [label="subcategy_id <= 49.5\ngini = 0.303\nsamples = 1237\nvalue = [1007, 230]", fillcolor="#eb9e66"] ;
73 -> 190 ;
347 [label="gini = 0.404\nsamples = 346\nvalue = [249, 97]", fillcolor="#efb286"] ;
190 -> 347 ;
348 [label="gini = 0.254\nsamples = 891\nvalue = [758, 133]", fillcolor="#ea975c"] ;
190 -> 348 ;
74 [label="subcategy_id <= 145.5\ngini = 0.499\nsamples = 1401\nvalue = [727, 674]", fillcolor="#fdf6f1"] ;
72 -> 74 ;
133 [label="convert_goal <= 11142.62\ngini = 0.48\nsamples = 654\nvalue = [261, 393]", fillcolor="#bcdef6"] ;
74 -> 133 ;
341 [label="country_ES <= 0.5\ngini = 0.453\nsamples = 464\nvalue = [161, 303]", fillcolor="#a2d1f3"] ;
133 -> 341 ;
601 [label="duration <= 56.0\ngini = 0.447\nsamples = 456\nvalue = [154, 302]", fillcolor="#9ecff2"] ;
341 -> 601 ;
895 [label="gini = 0.433\nsamples = 410\nvalue = [130, 280]", fillcolor="#95caf1"] ;
601 -> 895 ;
896 [label="gini = 0.499\nsamples = 46\nvalue = [24, 22]", fillcolor="#fdf5ef"] ;
601 -> 896 ;
602 [label="gini = 0.219\nsamples = 8\nvalue = [7, 1]", fillcolor="#e99355"] ;
341 -> 602 ;
342 [label="duration <= 56.0\ngini = 0.499\nsamples = 190\nvalue = [100, 90]", fillcolor="#fcf2eb"] ;
133 -> 342 ;
509 [label="duration <= 30.5\ngini = 0.5\nsamples = 171\nvalue = [83, 88]", fillcolor="#f4f9fe"] ;
342 -> 509 ;
537 [label="gini = 0.483\nsamples = 98\nvalue = [58, 40]", fillcolor="#f7d8c2"] ;
509 -> 537 ;
538 [label="country_US <= 0.5\ngini = 0.45\nsamples = 73\nvalue = [25, 48]", fillcolor="#a0d0f3"] ;
509 -> 538 ;
607 [label="gini = 0.472\nsamples = 21\nvalue = [13, 8]", fillcolor="#f5cfb3"] ;
538 -> 607 ;
608 [label="gini = 0.355\nsamples = 52\nvalue = [12, 40]", fillcolor="#74baed"] ;
538 -> 608 ;
510 [label="gini = 0.188\nsamples = 19\nvalue = [17, 2]", fillcolor="#e89050"] ;
342 -> 510 ;
134 [label="duration <= 59.5\ngini = 0.469\nsamples = 747\nvalue = [466, 281]", fillcolor="#f5cdb0"] ;
74 -> 134 ;
737 [label="weekday <= 4.5\ngini = 0.477\nsamples = 671\nvalue = [407, 264]", fillcolor="#f6d3b9"] ;
134 -> 737 ;
739 [label="gini = 0.487\nsamples = 556\nvalue = [323, 233]", fillcolor="#f8dcc8"] ;
737 -> 739 ;
740 [label="gini = 0.394\nsamples = 115\nvalue = [84, 31]", fillcolor="#efb082"] ;
737 -> 740 ;
738 [label="gini = 0.347\nsamples = 76\nvalue = [59, 17]", fillcolor="#eca572"] ;
134 -> 738 ;
8 [label="subcategy_id <= 37.5\ngini = 0.451\nsamples = 6440\nvalue = [4227, 2213]", fillcolor="#f3c3a1"] ;
5 -> 8 ;
25 [label="subcategy_id <= 29.5\ngini = 0.498\nsamples = 2563\nvalue = [1198, 1365]", fillcolor="#e7f3fc"] ;
8 -> 25 ;
31 [label="subcategy_id <= 19.0\ngini = 0.453\nsamples = 1510\nvalue = [987, 523]", fillcolor="#f3c4a2"] ;
25 -> 31 ;
49 [label="convert_goal <= 66813.777\ngini = 0.272\nsamples = 246\nvalue = [40, 206]", fillcolor="#5fb0ea"] ;
31 -> 49 ;
233 [label="subcategy_id <= 13.5\ngini = 0.186\nsamples = 221\nvalue = [23, 198]", fillcolor="#50a8e8"] ;
49 -> 233 ;
801 [label="category_id <= 12.5\ngini = 0.3\nsamples = 125\nvalue = [23, 102]", fillcolor="#66b3eb"] ;
233 -> 801 ;
803 [label="gini = 0.0\nsamples = 90\nvalue = [0, 90]", fillcolor="#399de5"] ;
801 -> 803 ;
804 [label="gini = 0.451\nsamples = 35\nvalue = [23, 12]", fillcolor="#f3c3a0"] ;
801 -> 804 ;
802 [label="gini = 0.0\nsamples = 96\nvalue = [0, 96]", fillcolor="#399de5"] ;
233 -> 802 ;
234 [label="subcategy_id <= 14.5\ngini = 0.435\nsamples = 25\nvalue = [17, 8]", fillcolor="#f1bc96"] ;
49 -> 234 ;
395 [label="gini = 0.188\nsamples = 19\nvalue = [17, 2]", fillcolor="#e89050"] ;
234 -> 395 ;
396 [label="gini = 0.0\nsamples = 6\nvalue = [0, 6]", fillcolor="#399de5"] ;
234 -> 396 ;
50 [label="subcategy_id <= 28.5\ngini = 0.376\nsamples = 1264\nvalue = [947, 317]", fillcolor="#eeab7b"] ;
31 -> 50 ;
105 [label="subcategy_id <= 27.5\ngini = 0.457\nsamples = 791\nvalue = [511, 280]", fillcolor="#f3c6a5"] ;
50 -> 105 ;
107 [label="category_id <= 16.5\ngini = 0.205\nsamples = 578\nvalue = [511, 67]", fillcolor="#e89253"] ;
105 -> 107 ;
213 [label="convert_goal <= 46774.902\ngini = 0.178\nsamples = 567\nvalue = [511, 56]", fillcolor="#e88f4f"] ;
107 -> 213 ;
431 [label="gini = 0.281\nsamples = 308\nvalue = [256, 52]", fillcolor="#ea9b61"] ;
213 -> 431 ;
432 [label="gini = 0.03\nsamples = 259\nvalue = [255, 4]", fillcolor="#e5833c"] ;
213 -> 432 ;
214 [label="gini = 0.0\nsamples = 11\nvalue = [0, 11]", fillcolor="#399de5"] ;
107 -> 214 ;
108 [label="gini = 0.0\nsamples = 213\nvalue = [0, 213]", fillcolor="#399de5"] ;
105 -> 108 ;
106 [label="gini = 0.144\nsamples = 473\nvalue = [436, 37]", fillcolor="#e78c4a"] ;
50 -> 106 ;
32 [label="category_id <= 13.0\ngini = 0.32\nsamples = 1053\nvalue = [211, 842]", fillcolor="#6bb6ec"] ;
25 -> 32 ;
137 [label="category_id <= 11.5\ngini = 0.259\nsamples = 923\nvalue = [141, 782]", fillcolor="#5dafea"] ;
32 -> 137 ;
201 [label="subcategy_id <= 32.5\ngini = 0.348\nsamples = 629\nvalue = [141, 488]", fillcolor="#72b9ed"] ;
137 -> 201 ;
203 [label="subcategy_id <= 30.5\ngini = 0.198\nsamples = 467\nvalue = [52, 415]", fillcolor="#52a9e8"] ;
201 -> 203 ;
281 [label="gini = 0.0\nsamples = 228\nvalue = [0, 228]", fillcolor="#399de5"] ;
203 -> 281 ;
282 [label="convert_goal <= 55277.5\ngini = 0.34\nsamples = 239\nvalue = [52, 187]", fillcolor="#70b8ec"] ;
203 -> 282 ;
391 [label="gini = 0.248\nsamples = 179\nvalue = [26, 153]", fillcolor="#5baee9"] ;
282 -> 391 ;
392 [label="gini = 0.491\nsamples = 60\nvalue = [26, 34]", fillcolor="#d0e8f9"] ;
282 -> 392 ;
204 [label="convert_goal <= 31729.5\ngini = 0.495\nsamples = 162\nvalue = [89, 73]", fillcolor="#fae8db"] ;
201 -> 204 ;
279 [label="gini = 0.441\nsamples = 67\nvalue = [22, 45]", fillcolor="#9acdf2"] ;
204 -> 279 ;
280 [label="duration <= 36.5\ngini = 0.416\nsamples = 95\nvalue = [67, 28]", fillcolor="#f0b68c"] ;
204 -> 280 ;
465 [label="gini = 0.488\nsamples = 64\nvalue = [37, 27]", fillcolor="#f8ddc9"] ;
280 -> 465 ;
466 [label="gini = 0.062\nsamples = 31\nvalue = [30, 1]", fillcolor="#e68540"] ;
280 -> 466 ;
202 [label="gini = 0.0\nsamples = 294\nvalue = [0, 294]", fillcolor="#399de5"] ;
137 -> 202 ;
138 [label="subcategy_id <= 36.5\ngini = 0.497\nsamples = 130\nvalue = [70, 60]", fillcolor="#fbede3"] ;
32 -> 138 ;
151 [label="convert_goal <= 35189.83\ngini = 0.38\nsamples = 94\nvalue = [70, 24]", fillcolor="#eeac7d"] ;
138 -> 151 ;
603 [label="country_GB <= 0.5\ngini = 0.475\nsamples = 54\nvalue = [33, 21]", fillcolor="#f6d1b7"] ;
151 -> 603 ;
789 [label="gini = 0.499\nsamples = 44\nvalue = [23, 21]", fillcolor="#fdf4ee"] ;
603 -> 789 ;
790 [label="gini = 0.0\nsamples = 10\nvalue = [10, 0]", fillcolor="#e58139"] ;
603 -> 790 ;
604 [label="gini = 0.139\nsamples = 40\nvalue = [37, 3]", fillcolor="#e78b49"] ;
151 -> 604 ;
152 [label="gini = 0.0\nsamples = 36\nvalue = [0, 36]", fillcolor="#399de5"] ;
138 -> 152 ;
26 [label="subcategy_id <= 261.5\ngini = 0.342\nsamples = 3877\nvalue = [3029, 848]", fillcolor="#eca470"] ;
8 -> 26 ;
67 [label="convert_goal <= 40024.91\ngini = 0.304\nsamples = 3598\nvalue = [2925, 673]", fillcolor="#eb9e67"] ;
26 -> 67 ;
89 [label="subcategy_id <= 48.5\ngini = 0.405\nsamples = 1618\nvalue = [1161, 457]", fillcolor="#efb387"] ;
67 -> 89 ;
175 [label="subcategy_id <= 45.5\ngini = 0.481\nsamples = 547\nvalue = [327, 220]", fillcolor="#f6d6be"] ;
89 -> 175 ;
177 [label="subcategy_id <= 39.5\ngini = 0.429\nsamples = 475\nvalue = [327, 148]", fillcolor="#f1ba93"] ;
175 -> 177 ;
221 [label="gini = 0.123\nsamples = 106\nvalue = [99, 7]", fillcolor="#e78a47"] ;
177 -> 221 ;
222 [label="subcategy_id <= 43.5\ngini = 0.472\nsamples = 369\nvalue = [228, 141]", fillcolor="#f5cfb3"] ;
177 -> 222 ;
251 [label="subcategy_id <= 42.5\ngini = 0.5\nsamples = 197\nvalue = [97, 100]", fillcolor="#f9fcfe"] ;
222 -> 251 ;
253 [label="subcategy_id <= 40.5\ngini = 0.483\nsamples = 164\nvalue = [97, 67]", fillcolor="#f7d8c2"] ;
251 -> 253 ;
263 [label="gini = 0.0\nsamples = 16\nvalue = [0, 16]", fillcolor="#399de5"] ;
253 -> 263 ;
264 [label="gini = 0.452\nsamples = 148\nvalue = [97, 51]", fillcolor="#f3c3a1"] ;
253 -> 264 ;
254 [label="gini = 0.0\nsamples = 33\nvalue = [0, 33]", fillcolor="#399de5"] ;
251 -> 254 ;
252 [label="category_id <= 16.0\ngini = 0.363\nsamples = 172\nvalue = [131, 41]", fillcolor="#eda877"] ;
222 -> 252 ;
923 [label="gini = 0.24\nsamples = 86\nvalue = [74, 12]", fillcolor="#e99559"] ;
252 -> 923 ;
924 [label="gini = 0.447\nsamples = 86\nvalue = [57, 29]", fillcolor="#f2c19e"] ;
252 -> 924 ;
178 [label="gini = 0.0\nsamples = 72\nvalue = [0, 72]", fillcolor="#399de5"] ;
175 -> 178 ;
176 [label="subcategy_id <= 51.5\ngini = 0.345\nsamples = 1071\nvalue = [834, 237]", fillcolor="#eca571"] ;
89 -> 176 ;
225 [label="gini = 0.184\nsamples = 370\nvalue = [332, 38]", fillcolor="#e88f50"] ;
176 -> 225 ;
226 [label="subcategy_id <= 52.5\ngini = 0.407\nsamples = 701\nvalue = [502, 199]", fillcolor="#efb387"] ;
176 -> 226 ;
227 [label="weekday <= 3.5\ngini = 0.487\nsamples = 277\nvalue = [161, 116]", fillcolor="#f8dcc8"] ;
226 -> 227 ;
415 [label="country_US <= 0.5\ngini = 0.499\nsamples = 215\nvalue = [112, 103]", fillcolor="#fdf5ef"] ;
227 -> 415 ;
753 [label="duration <= 23.5\ngini = 0.458\nsamples = 79\nvalue = [51, 28]", fillcolor="#f3c6a6"] ;
415 -> 753 ;
873 [label="gini = 0.0\nsamples = 4\nvalue = [0, 4]", fillcolor="#399de5"] ;
753 -> 873 ;
874 [label="gini = 0.435\nsamples = 75\nvalue = [51, 24]", fillcolor="#f1bc96"] ;
753 -> 874 ;
754 [label="weekday <= 0.5\ngini = 0.495\nsamples = 136\nvalue = [61, 75]", fillcolor="#daedfa"] ;
415 -> 754 ;
755 [label="gini = 0.36\nsamples = 34\nvalue = [8, 26]", fillcolor="#76bbed"] ;
754 -> 755 ;
756 [label="gini = 0.499\nsamples = 102\nvalue = [53, 49]", fillcolor="#fdf5f0"] ;
754 -> 756 ;
416 [label="gini = 0.331\nsamples = 62\nvalue = [49, 13]", fillcolor="#eca26e"] ;
227 -> 416 ;
228 [label="gini = 0.315\nsamples = 424\nvalue = [341, 83]", fillcolor="#eba069"] ;
226 -> 228 ;
90 [label="subcategy_id <= 51.5\ngini = 0.194\nsamples = 1980\nvalue = [1764, 216]", fillcolor="#e89051"] ;
67 -> 90 ;
291 [label="category_id <= 17.0\ngini = 0.103\nsamples = 934\nvalue = [883, 51]", fillcolor="#e78844"] ;
90 -> 291 ;
439 [label="gini = 0.06\nsamples = 806\nvalue = [781, 25]", fillcolor="#e6853f"] ;
291 -> 439 ;
440 [label="gini = 0.324\nsamples = 128\nvalue = [102, 26]", fillcolor="#eca16b"] ;
291 -> 440 ;
292 [label="subcategy_id <= 52.5\ngini = 0.266\nsamples = 1046\nvalue = [881, 165]", fillcolor="#ea995e"] ;
90 -> 292 ;
293 [label="convert_goal <= 100424.688\ngini = 0.395\nsamples = 505\nvalue = [368, 137]", fillcolor="#efb083"] ;
292 -> 293 ;
443 [label="month_project <= 4.5\ngini = 0.44\nsamples = 343\nvalue = [231, 112]", fillcolor="#f2be99"] ;
293 -> 443 ;
1051 [label="gini = 0.487\nsamples = 119\nvalue = [69, 50]", fillcolor="#f8dcc8"] ;
443 -> 1051 ;
1052 [label="gini = 0.4\nsamples = 224\nvalue = [162, 62]", fillcolor="#efb185"] ;
443 -> 1052 ;
444 [label="gini = 0.261\nsamples = 162\nvalue = [137, 25]", fillcolor="#ea985d"] ;
293 -> 444 ;
294 [label="gini = 0.098\nsamples = 541\nvalue = [513, 28]", fillcolor="#e68844"] ;
292 -> 294 ;
68 [label="month_project <= 5.5\ngini = 0.468\nsamples = 279\nvalue = [104, 175]", fillcolor="#afd7f4"] ;
26 -> 68 ;
209 [label="gini = 0.144\nsamples = 77\nvalue = [6, 71]", fillcolor="#4aa5e7"] ;
68 -> 209 ;
210 [label="convert_goal <= 56374.592\ngini = 0.5\nsamples = 202\nvalue = [98, 104]", fillcolor="#f4f9fe"] ;
68 -> 210 ;
351 [label="duration <= 59.0\ngini = 0.491\nsamples = 178\nvalue = [77, 101]", fillcolor="#d0e8f9"] ;
210 -> 351 ;
589 [label="gini = 0.482\nsamples = 168\nvalue = [68, 100]", fillcolor="#c0e0f7"] ;
351 -> 589 ;
590 [label="gini = 0.18\nsamples = 10\nvalue = [9, 1]", fillcolor="#e88f4f"] ;
351 -> 590 ;
352 [label="gini = 0.219\nsamples = 24\nvalue = [21, 3]", fillcolor="#e99355"] ;
210 -> 352 ;
6 [label="subcategy_id <= 48.5\ngini = 0.118\nsamples = 11903\nvalue = [747, 11156]", fillcolor="#46a4e7"] ;
1 -> 6 ;
269 [label="category_id <= 2.0\ngini = 0.092\nsamples = 8403\nvalue = [405, 7998]", fillcolor="#43a2e6"] ;
6 -> 269 ;
319 [label="convert_goal <= 4386.385\ngini = 0.2\nsamples = 983\nvalue = [111, 872]", fillcolor="#52a9e8"] ;
269 -> 319 ;
321 [label="gini = 0.099\nsamples = 558\nvalue = [29, 529]", fillcolor="#44a2e6"] ;
319 -> 321 ;
322 [label="subcategy_id <= 24.5\ngini = 0.311\nsamples = 425\nvalue = [82, 343]", fillcolor="#68b4eb"] ;
319 -> 322 ;
531 [label="duration <= 44.5\ngini = 0.263\nsamples = 347\nvalue = [54, 293]", fillcolor="#5dafea"] ;
322 -> 531 ;
1029 [label="gini = 0.227\nsamples = 306\nvalue = [40, 266]", fillcolor="#57ace9"] ;
531 -> 1029 ;
1030 [label="gini = 0.45\nsamples = 41\nvalue = [14, 27]", fillcolor="#a0d0f2"] ;
531 -> 1030 ;
532 [label="convert_goal <= 28372.447\ngini = 0.46\nsamples = 78\nvalue = [28, 50]", fillcolor="#a8d4f4"] ;
322 -> 532 ;
893 [label="gini = 0.414\nsamples = 65\nvalue = [19, 46]", fillcolor="#8bc5f0"] ;
532 -> 893 ;
894 [label="gini = 0.426\nsamples = 13\nvalue = [9, 4]", fillcolor="#f1b991"] ;
532 -> 894 ;
320 [label="subcategy_id <= 45.5\ngini = 0.076\nsamples = 7420\nvalue = [294, 7126]", fillcolor="#41a1e6"] ;
269 -> 320 ;
815 [label="subcategy_id <= 43.5\ngini = 0.087\nsamples = 6416\nvalue = [294, 6122]", fillcolor="#43a2e6"] ;
320 -> 815 ;
817 [label="subcategy_id <= 29.5\ngini = 0.064\nsamples = 5673\nvalue = [188, 5485]", fillcolor="#40a0e6"] ;
815 -> 817 ;
993 [label="subcategy_id <= 28.5\ngini = 0.108\nsamples = 1892\nvalue = [108, 1784]", fillcolor="#45a3e7"] ;
817 -> 993 ;
995 [label="subcategy_id <= 26.5\ngini = 0.051\nsamples = 1579\nvalue = [41, 1538]", fillcolor="#3ea0e6"] ;
993 -> 995 ;
1001 [label="gini = 0.007\nsamples = 1127\nvalue = [4, 1123]", fillcolor="#3a9de5"] ;
995 -> 1001 ;
1002 [label="subcategy_id <= 27.5\ngini = 0.15\nsamples = 452\nvalue = [37, 415]", fillcolor="#4ba6e7"] ;
995 -> 1002 ;
1003 [label="convert_goal <= 4012.617\ngini = 0.249\nsamples = 254\nvalue = [37, 217]", fillcolor="#5baee9"] ;
1002 -> 1003 ;
1005 [label="gini = 0.125\nsamples = 149\nvalue = [10, 139]", fillcolor="#47a4e7"] ;
1003 -> 1005 ;
1006 [label="gini = 0.382\nsamples = 105\nvalue = [27, 78]", fillcolor="#7ebfee"] ;
1003 -> 1006 ;
1004 [label="gini = 0.0\nsamples = 198\nvalue = [0, 198]", fillcolor="#399de5"] ;
1002 -> 1004 ;
996 [label="convert_goal <= 14968.921\ngini = 0.336\nsamples = 313\nvalue = [67, 246]", fillcolor="#6fb8ec"] ;
993 -> 996 ;
997 [label="gini = 0.139\nsamples = 160\nvalue = [12, 148]", fillcolor="#49a5e7"] ;
996 -> 997 ;
998 [label="country_US <= 0.5\ngini = 0.461\nsamples = 153\nvalue = [55, 98]", fillcolor="#a8d4f4"] ;
996 -> 998 ;
999 [label="gini = 0.473\nsamples = 26\nvalue = [16, 10]", fillcolor="#f5d0b5"] ;
998 -> 999 ;
1000 [label="gini = 0.426\nsamples = 127\nvalue = [39, 88]", fillcolor="#91c8f1"] ;
998 -> 1000 ;
994 [label="category_id <= 13.0\ngini = 0.041\nsamples = 3781\nvalue = [80, 3701]", fillcolor="#3d9fe6"] ;
817 -> 994 ;
1007 [label="gini = 0.008\nsamples = 2403\nvalue = [10, 2393]", fillcolor="#3a9de5"] ;
994 -> 1007 ;
1008 [label="gini = 0.096\nsamples = 1378\nvalue = [70, 1308]", fillcolor="#44a2e6"] ;
994 -> 1008 ;
818 [label="gini = 0.245\nsamples = 743\nvalue = [106, 637]", fillcolor="#5aade9"] ;
815 -> 818 ;
816 [label="gini = 0.0\nsamples = 1004\nvalue = [0, 1004]", fillcolor="#399de5"] ;
320 -> 816 ;
270 [label="convert_goal <= 31939.892\ngini = 0.176\nsamples = 3500\nvalue = [342, 3158]", fillcolor="#4ea8e8"] ;
6 -> 270 ;
275 [label="subcategy_id <= 261.5\ngini = 0.151\nsamples = 3058\nvalue = [251, 2807]", fillcolor="#4ba6e7"] ;
270 -> 275 ;
609 [label="country_FR <= 0.5\ngini = 0.166\nsamples = 2736\nvalue = [250, 2486]", fillcolor="#4da7e8"] ;
275 -> 609 ;
611 [label="convert_goal <= 10069.566\ngini = 0.161\nsamples = 2702\nvalue = [238, 2464]", fillcolor="#4ca6e8"] ;
609 -> 611 ;
687 [label="gini = 0.132\nsamples = 1980\nvalue = [141, 1839]", fillcolor="#48a5e7"] ;
611 -> 687 ;
688 [label="gini = 0.233\nsamples = 722\nvalue = [97, 625]", fillcolor="#58ace9"] ;
611 -> 688 ;
612 [label="gini = 0.457\nsamples = 34\nvalue = [12, 22]", fillcolor="#a5d2f3"] ;
609 -> 612 ;
610 [label="gini = 0.006\nsamples = 322\nvalue = [1, 321]", fillcolor="#3a9de5"] ;
275 -> 610 ;
276 [label="convert_goal <= 255000.0\ngini = 0.327\nsamples = 442\nvalue = [91, 351]", fillcolor="#6cb6ec"] ;
270 -> 276 ;
519 [label="subcategy_id <= 51.5\ngini = 0.31\nsamples = 428\nvalue = [82, 346]", fillcolor="#68b4eb"] ;
276 -> 519 ;
625 [label="gini = 0.473\nsamples = 52\nvalue = [20, 32]", fillcolor="#b5daf5"] ;
519 -> 625 ;
626 [label="category_id <= 8.0\ngini = 0.275\nsamples = 376\nvalue = [62, 314]", fillcolor="#60b0ea"] ;
519 -> 626 ;
627 [label="gini = 0.39\nsamples = 143\nvalue = [38, 105]", fillcolor="#81c0ee"] ;
626 -> 627 ;
628 [label="gini = 0.185\nsamples = 233\nvalue = [24, 209]", fillcolor="#50a8e8"] ;
626 -> 628 ;
520 [label="duration <= 31.5\ngini = 0.459\nsamples = 14\nvalue = [9, 5]", fillcolor="#f3c7a7"] ;
276 -> 520 ;
569 [label="gini = 0.278\nsamples = 6\nvalue = [1, 5]", fillcolor="#61b1ea"] ;
520 -> 569 ;
570 [label="gini = 0.0\nsamples = 8\nvalue = [8, 0]", fillcolor="#e58139"] ;
520 -> 570 ;
2 [label="staff_pick <= 0.5\ngini = 0.451\nsamples = 57611\nvalue = [37800, 19811]", fillcolor="#f3c3a1"] ;
0 -> 2 [labeldistance=2.5, labelangle=-45, headlabel="False"] ;
3 [label="convert_goal <= 4999.5\ngini = 0.417\nsamples = 52211\nvalue = [36742, 15469]", fillcolor="#f0b68c"] ;
2 -> 3 ;
9 [label="duration <= 28.5\ngini = 0.485\nsamples = 21867\nvalue = [12802, 9065]", fillcolor="#f7dac5"] ;
3 -> 9 ;
33 [label="convert_goal <= 761.317\ngini = 0.498\nsamples = 5935\nvalue = [2791, 3144]", fillcolor="#e9f4fc"] ;
9 -> 33 ;
113 [label="convert_goal <= 100.045\ngini = 0.477\nsamples = 2184\nvalue = [858, 1326]", fillcolor="#b9dcf6"] ;
33 -> 113 ;
317 [label="category_id <= 10.5\ngini = 0.417\nsamples = 409\nvalue = [121, 288]", fillcolor="#8cc6f0"] ;
113 -> 317 ;
447 [label="gini = 0.492\nsamples = 114\nvalue = [50, 64]", fillcolor="#d4eaf9"] ;
317 -> 447 ;
448 [label="subcategy_id <= 272.5\ngini = 0.366\nsamples = 295\nvalue = [71, 224]", fillcolor="#78bced"] ;
317 -> 448 ;
449 [label="gini = 0.444\nsamples = 18\nvalue = [12, 6]", fillcolor="#f2c09c"] ;
448 -> 449 ;
450 [label="subcategy_id <= 274.5\ngini = 0.335\nsamples = 277\nvalue = [59, 218]", fillcolor="#6fb8ec"] ;
448 -> 450 ;
855 [label="gini = 0.078\nsamples = 49\nvalue = [2, 47]", fillcolor="#41a1e6"] ;
450 -> 855 ;
856 [label="gini = 0.375\nsamples = 228\nvalue = [57, 171]", fillcolor="#7bbeee"] ;
450 -> 856 ;
318 [label="country_FR <= 0.5\ngini = 0.486\nsamples = 1775\nvalue = [737, 1038]", fillcolor="#c6e3f7"] ;
113 -> 318 ;
515 [label="subcategy_id <= 272.5\ngini = 0.484\nsamples = 1753\nvalue = [720, 1033]", fillcolor="#c3e1f7"] ;
318 -> 515 ;
643 [label="subcategy_id <= 271.5\ngini = 0.5\nsamples = 227\nvalue = [114, 113]", fillcolor="#fffefd"] ;
515 -> 643 ;
647 [label="duration <= 26.5\ngini = 0.492\nsamples = 181\nvalue = [79, 102]", fillcolor="#d2e9f9"] ;
643 -> 647 ;
907 [label="gini = 0.498\nsamples = 165\nvalue = [77, 88]", fillcolor="#e6f3fc"] ;
647 -> 907 ;
908 [label="gini = 0.219\nsamples = 16\nvalue = [2, 14]", fillcolor="#55abe9"] ;
647 -> 908 ;
648 [label="gini = 0.364\nsamples = 46\nvalue = [35, 11]", fillcolor="#eda977"] ;
643 -> 648 ;
644 [label="subcategy_id <= 286.5\ngini = 0.479\nsamples = 1526\nvalue = [606, 920]", fillcolor="#bbdef6"] ;
515 -> 644 ;
645 [label="convert_goal <= 199.682\ngini = 0.425\nsamples = 428\nvalue = [131, 297]", fillcolor="#90c8f0"] ;
644 -> 645 ;
649 [label="convert_goal <= 129.432\ngini = 0.231\nsamples = 75\nvalue = [10, 65]", fillcolor="#57ace9"] ;
645 -> 649 ;
791 [label="gini = 0.444\nsamples = 6\nvalue = [4, 2]", fillcolor="#f2c09c"] ;
649 -> 791 ;
792 [label="gini = 0.159\nsamples = 69\nvalue = [6, 63]", fillcolor="#4ca6e7"] ;
649 -> 792 ;
650 [label="subcategy_id <= 283.5\ngini = 0.451\nsamples = 353\nvalue = [121, 232]", fillcolor="#a0d0f3"] ;
645 -> 650 ;
651 [label="gini = 0.483\nsamples = 258\nvalue = [105, 153]", fillcolor="#c1e0f7"] ;
650 -> 651 ;
652 [label="gini = 0.28\nsamples = 95\nvalue = [16, 79]", fillcolor="#61b1ea"] ;
650 -> 652 ;
646 [label="convert_goal <= 116.334\ngini = 0.491\nsamples = 1098\nvalue = [475, 623]", fillcolor="#d0e8f9"] ;
644 -> 646 ;
653 [label="gini = 0.305\nsamples = 16\nvalue = [13, 3]", fillcolor="#eb9e67"] ;
646 -> 653 ;
654 [label="duration <= 20.5\ngini = 0.489\nsamples = 1082\nvalue = [462, 620]", fillcolor="#cde6f8"] ;
646 -> 654 ;
655 [label="convert_goal <= 701.073\ngini = 0.496\nsamples = 775\nvalue = [353, 422]", fillcolor="#dfeffb"] ;
654 -> 655 ;
657 [label="gini = 0.498\nsamples = 726\nvalue = [341, 385]", fillcolor="#e8f4fc"] ;
655 -> 657 ;
658 [label="gini = 0.37\nsamples = 49\nvalue = [12, 37]", fillcolor="#79bded"] ;
655 -> 658 ;
656 [label="gini = 0.458\nsamples = 307\nvalue = [109, 198]", fillcolor="#a6d3f3"] ;
654 -> 656 ;
516 [label="gini = 0.351\nsamples = 22\nvalue = [17, 5]", fillcolor="#eda673"] ;
318 -> 516 ;
114 [label="subcategy_id <= 302.5\ngini = 0.5\nsamples = 3751\nvalue = [1933, 1818]", fillcolor="#fdf8f3"] ;
33 -> 114 ;
123 [label="subcategy_id <= 272.5\ngini = 0.496\nsamples = 2200\nvalue = [1000, 1200]", fillcolor="#deeffb"] ;
114 -> 123 ;
125 [label="duration <= 20.5\ngini = 0.399\nsamples = 345\nvalue = [250, 95]", fillcolor="#efb184"] ;
123 -> 125 ;
409 [label="gini = 0.301\nsamples = 190\nvalue = [155, 35]", fillcolor="#eb9d66"] ;
125 -> 409 ;
410 [label="weekday <= 4.5\ngini = 0.475\nsamples = 155\nvalue = [95, 60]", fillcolor="#f5d1b6"] ;
125 -> 410 ;
623 [label="gini = 0.446\nsamples = 131\nvalue = [87, 44]", fillcolor="#f2c19d"] ;
410 -> 623 ;
624 [label="gini = 0.444\nsamples = 24\nvalue = [8, 16]", fillcolor="#9ccef2"] ;
410 -> 624 ;
126 [label="category_id <= 16.0\ngini = 0.482\nsamples = 1855\nvalue = [750, 1105]", fillcolor="#bfe0f7"] ;
123 -> 126 ;
179 [label="category_id <= 13.5\ngini = 0.495\nsamples = 1418\nvalue = [636, 782]", fillcolor="#daedfa"] ;
126 -> 179 ;
181 [label="subcategy_id <= 273.5\ngini = 0.476\nsamples = 1084\nvalue = [424, 660]", fillcolor="#b8dcf6"] ;
179 -> 181 ;
249 [label="gini = 0.344\nsamples = 190\nvalue = [42, 148]", fillcolor="#71b9ec"] ;
181 -> 249 ;
250 [label="month_project <= 8.5\ngini = 0.489\nsamples = 894\nvalue = [382, 512]", fillcolor="#cde6f8"] ;
181 -> 250 ;
475 [label="month_project <= 3.5\ngini = 0.497\nsamples = 655\nvalue = [303, 352]", fillcolor="#e3f1fb"] ;
250 -> 475 ;
571 [label="country_GB <= 0.5\ngini = 0.473\nsamples = 240\nvalue = [92, 148]", fillcolor="#b4daf5"] ;
475 -> 571 ;
909 [label="gini = 0.489\nsamples = 193\nvalue = [82, 111]", fillcolor="#cbe5f8"] ;
571 -> 909 ;
910 [label="gini = 0.335\nsamples = 47\nvalue = [10, 37]", fillcolor="#6fb7ec"] ;
571 -> 910 ;
572 [label="month_project <= 6.5\ngini = 0.5\nsamples = 415\nvalue = [211, 204]", fillcolor="#fefbf8"] ;
475 -> 572 ;
933 [label="gini = 0.493\nsamples = 246\nvalue = [138, 108]", fillcolor="#f9e4d4"] ;
572 -> 933 ;
934 [label="gini = 0.491\nsamples = 169\nvalue = [73, 96]", fillcolor="#d0e8f9"] ;
572 -> 934 ;
476 [label="gini = 0.443\nsamples = 239\nvalue = [79, 160]", fillcolor="#9bcdf2"] ;
250 -> 476 ;
182 [label="country_US <= 0.5\ngini = 0.464\nsamples = 334\nvalue = [212, 122]", fillcolor="#f4caab"] ;
179 -> 182 ;
679 [label="gini = 0.379\nsamples = 114\nvalue = [85, 29]", fillcolor="#eeac7d"] ;
182 -> 679 ;
680 [label="convert_goal <= 1475.0\ngini = 0.488\nsamples = 220\nvalue = [127, 93]", fillcolor="#f8ddca"] ;
182 -> 680 ;
681 [label="gini = 0.477\nsamples = 61\nvalue = [24, 37]", fillcolor="#b9ddf6"] ;
680 -> 681 ;
682 [label="duration <= 19.5\ngini = 0.456\nsamples = 159\nvalue = [103, 56]", fillcolor="#f3c6a5"] ;
680 -> 682 ;
1031 [label="gini = 0.499\nsamples = 63\nvalue = [33, 30]", fillcolor="#fdf4ed"] ;
682 -> 1031 ;
1032 [label="gini = 0.395\nsamples = 96\nvalue = [70, 26]", fillcolor="#efb083"] ;
682 -> 1032 ;
180 [label="country_AU <= 0.5\ngini = 0.386\nsamples = 437\nvalue = [114, 323]", fillcolor="#7fc0ee"] ;
126 -> 180 ;
747 [label="gini = 0.377\nsamples = 429\nvalue = [108, 321]", fillcolor="#7cbeee"] ;
180 -> 747 ;
748 [label="gini = 0.375\nsamples = 8\nvalue = [6, 2]", fillcolor="#eeab7b"] ;
180 -> 748 ;
124 [label="subcategy_id <= 341.5\ngini = 0.479\nsamples = 1551\nvalue = [933, 618]", fillcolor="#f6d4bc"] ;
114 -> 124 ;
271 [label="subcategy_id <= 314.5\ngini = 0.493\nsamples = 1044\nvalue = [583, 461]", fillcolor="#fae5d6"] ;
124 -> 271 ;
273 [label="convert_goal <= 975.0\ngini = 0.443\nsamples = 405\nvalue = [271, 134]", fillcolor="#f2bf9b"] ;
271 -> 273 ;
1009 [label="gini = 0.486\nsamples = 24\nvalue = [10, 14]", fillcolor="#c6e3f8"] ;
273 -> 1009 ;
1010 [label="gini = 0.432\nsamples = 381\nvalue = [261, 120]", fillcolor="#f1bb94"] ;
273 -> 1010 ;
274 [label="convert_goal <= 1294.471\ngini = 0.5\nsamples = 639\nvalue = [312, 327]", fillcolor="#f6fbfe"] ;
271 -> 274 ;
523 [label="gini = 0.471\nsamples = 171\nvalue = [65, 106]", fillcolor="#b2d9f5"] ;
274 -> 523 ;
524 [label="gini = 0.498\nsamples = 468\nvalue = [247, 221]", fillcolor="#fcf2ea"] ;
274 -> 524 ;
272 [label="subcategy_id <= 346.5\ngini = 0.428\nsamples = 507\nvalue = [350, 157]", fillcolor="#f1ba92"] ;
124 -> 272 ;
473 [label="gini = 0.32\nsamples = 170\nvalue = [136, 34]", fillcolor="#eca06a"] ;
272 -> 473 ;
474 [label="country_GB <= 0.5\ngini = 0.464\nsamples = 337\nvalue = [214, 123]", fillcolor="#f4c9ab"] ;
272 -> 474 ;
621 [label="subcategy_id <= 388.5\ngini = 0.446\nsamples = 298\nvalue = [198, 100]", fillcolor="#f2c19d"] ;
474 -> 621 ;
825 [label="convert_goal <= 3512.5\ngini = 0.44\nsamples = 294\nvalue = [198, 96]", fillcolor="#f2be99"] ;
621 -> 825 ;
1041 [label="gini = 0.456\nsamples = 265\nvalue = [172, 93]", fillcolor="#f3c5a4"] ;
825 -> 1041 ;
1042 [label="subcategy_id <= 353.5\ngini = 0.185\nsamples = 29\nvalue = [26, 3]", fillcolor="#e89050"] ;
825 -> 1042 ;
1043 [label="gini = 0.0\nsamples = 2\nvalue = [0, 2]", fillcolor="#399de5"] ;
1042 -> 1043 ;
1044 [label="gini = 0.071\nsamples = 27\nvalue = [26, 1]", fillcolor="#e68641"] ;
1042 -> 1044 ;
826 [label="gini = 0.0\nsamples = 4\nvalue = [0, 4]", fillcolor="#399de5"] ;
621 -> 826 ;
622 [label="gini = 0.484\nsamples = 39\nvalue = [16, 23]", fillcolor="#c3e1f7"] ;
474 -> 622 ;
34 [label="subcategy_id <= 341.5\ngini = 0.467\nsamples = 15932\nvalue = [10011, 5921]", fillcolor="#f4ccae"] ;
9 -> 34 ;
69 [label="category_id <= 15.5\ngini = 0.479\nsamples = 12927\nvalue = [7777, 5150]", fillcolor="#f6d4bc"] ;
34 -> 69 ;
75 [label="subcategy_id <= 272.5\ngini = 0.463\nsamples = 9462\nvalue = [6014, 3448]", fillcolor="#f4c9ab"] ;
69 -> 75 ;
127 [label="convert_goal <= 458.841\ngini = 0.392\nsamples = 1720\nvalue = [1259, 461]", fillcolor="#efaf82"] ;
75 -> 127 ;
207 [label="subcategy_id <= 271.5\ngini = 0.493\nsamples = 270\nvalue = [151, 119]", fillcolor="#f9e4d5"] ;
127 -> 207 ;
315 [label="gini = 0.498\nsamples = 182\nvalue = [85, 97]", fillcolor="#e7f3fc"] ;
207 -> 315 ;
316 [label="convert_goal <= 18.951\ngini = 0.375\nsamples = 88\nvalue = [66, 22]", fillcolor="#eeab7b"] ;
207 -> 316 ;
491 [label="gini = 0.0\nsamples = 5\nvalue = [0, 5]", fillcolor="#399de5"] ;
316 -> 491 ;
492 [label="country_US <= 0.5\ngini = 0.326\nsamples = 83\nvalue = [66, 17]", fillcolor="#eca16c"] ;
316 -> 492 ;
961 [label="gini = 0.174\nsamples = 52\nvalue = [47, 5]", fillcolor="#e88e4e"] ;
492 -> 961 ;
962 [label="gini = 0.475\nsamples = 31\nvalue = [19, 12]", fillcolor="#f5d1b6"] ;
492 -> 962 ;
208 [label="subcategy_id <= 271.5\ngini = 0.36\nsamples = 1450\nvalue = [1108, 342]", fillcolor="#eda876"] ;
127 -> 208 ;
277 [label="subcategy_id <= 269.5\ngini = 0.4\nsamples = 1023\nvalue = [740, 283]", fillcolor="#efb185"] ;
208 -> 277 ;
763 [label="gini = 0.378\nsamples = 787\nvalue = [588, 199]", fillcolor="#eeac7c"] ;
277 -> 763 ;
764 [label="subcategy_id <= 270.5\ngini = 0.458\nsamples = 236\nvalue = [152, 84]", fillcolor="#f3c7a6"] ;
277 -> 764 ;
765 [label="country_GB <= 0.5\ngini = 0.486\nsamples = 65\nvalue = [27, 38]", fillcolor="#c6e3f7"] ;
764 -> 765 ;
767 [label="gini = 0.444\nsamples = 54\nvalue = [18, 36]", fillcolor="#9ccef2"] ;
765 -> 767 ;
768 [label="gini = 0.298\nsamples = 11\nvalue = [9, 2]", fillcolor="#eb9d65"] ;
765 -> 768 ;
766 [label="gini = 0.393\nsamples = 171\nvalue = [125, 46]", fillcolor="#efaf82"] ;
764 -> 766 ;
278 [label="gini = 0.238\nsamples = 427\nvalue = [368, 59]", fillcolor="#e99559"] ;
208 -> 278 ;
128 [label="subcategy_id <= 273.5\ngini = 0.474\nsamples = 7742\nvalue = [4755, 2987]", fillcolor="#f5d0b5"] ;
75 -> 128 ;
129 [label="weekday <= 2.5\ngini = 0.468\nsamples = 540\nvalue = [202, 338]", fillcolor="#afd8f5"] ;
128 -> 129 ;
573 [label="gini = 0.43\nsamples = 291\nvalue = [91, 200]", fillcolor="#93caf1"] ;
129 -> 573 ;
574 [label="convert_goal <= 775.0\ngini = 0.494\nsamples = 249\nvalue = [111, 138]", fillcolor="#d8ecfa"] ;
129 -> 574 ;
575 [label="gini = 0.32\nsamples = 35\nvalue = [7, 28]", fillcolor="#6ab6ec"] ;
574 -> 575 ;
576 [label="weekday <= 3.5\ngini = 0.5\nsamples = 214\nvalue = [104, 110]", fillcolor="#f4fafe"] ;
574 -> 576 ;
613 [label="gini = 0.455\nsamples = 60\nvalue = [39, 21]", fillcolor="#f3c5a4"] ;
576 -> 613 ;
614 [label="gini = 0.488\nsamples = 154\nvalue = [65, 89]", fillcolor="#cae5f8"] ;
576 -> 614 ;
130 [label="subcategy_id <= 279.5\ngini = 0.465\nsamples = 7202\nvalue = [4553, 2649]", fillcolor="#f4caac"] ;
128 -> 130 ;
139 [label="convert_goal <= 464.677\ngini = 0.383\nsamples = 1159\nvalue = [860, 299]", fillcolor="#eead7e"] ;
130 -> 139 ;
239 [label="convert_goal <= 8.126\ngini = 0.496\nsamples = 158\nvalue = [86, 72]", fillcolor="#fbeadf"] ;
139 -> 239 ;
663 [label="gini = 0.0\nsamples = 7\nvalue = [0, 7]", fillcolor="#399de5"] ;
239 -> 663 ;
664 [label="gini = 0.49\nsamples = 151\nvalue = [86, 65]", fillcolor="#f9e0cf"] ;
239 -> 664 ;
240 [label="subcategy_id <= 276.5\ngini = 0.351\nsamples = 1001\nvalue = [774, 227]", fillcolor="#eda673"] ;
139 -> 240 ;
309 [label="convert_goal <= 3082.387\ngini = 0.444\nsamples = 297\nvalue = [198, 99]", fillcolor="#f2c09c"] ;
240 -> 309 ;
751 [label="country_GB <= 0.5\ngini = 0.47\nsamples = 231\nvalue = [144, 87]", fillcolor="#f5cdb1"] ;
309 -> 751 ;
969 [label="gini = 0.455\nsamples = 209\nvalue = [136, 73]", fillcolor="#f3c5a3"] ;
751 -> 969 ;
970 [label="month_project <= 6.0\ngini = 0.463\nsamples = 22\nvalue = [8, 14]", fillcolor="#aad5f4"] ;
751 -> 970 ;
987 [label="gini = 0.165\nsamples = 11\nvalue = [1, 10]", fillcolor="#4da7e8"] ;
970 -> 987 ;
988 [label="duration <= 35.0\ngini = 0.463\nsamples = 11\nvalue = [7, 4]", fillcolor="#f4c9aa"] ;
970 -> 988 ;
989 [label="gini = 0.0\nsamples = 6\nvalue = [6, 0]", fillcolor="#e58139"] ;
988 -> 989 ;
990 [label="gini = 0.32\nsamples = 5\nvalue = [1, 4]", fillcolor="#6ab6ec"] ;
988 -> 990 ;
752 [label="gini = 0.298\nsamples = 66\nvalue = [54, 12]", fillcolor="#eb9d65"] ;
309 -> 752 ;
310 [label="gini = 0.298\nsamples = 704\nvalue = [576, 128]", fillcolor="#eb9d65"] ;
240 -> 310 ;
140 [label="category_id <= 10.5\ngini = 0.475\nsamples = 6043\nvalue = [3693, 2350]", fillcolor="#f6d1b7"] ;
130 -> 140 ;
141 [label="subcategy_id <= 312.5\ngini = 0.434\nsamples = 2191\nvalue = [1493, 698]", fillcolor="#f1bc96"] ;
140 -> 141 ;
295 [label="subcategy_id <= 288.5\ngini = 0.411\nsamples = 1607\nvalue = [1142, 465]", fillcolor="#f0b48a"] ;
141 -> 295 ;
311 [label="duration <= 47.5\ngini = 0.492\nsamples = 195\nvalue = [110, 85]", fillcolor="#f9e2d2"] ;
295 -> 311 ;
559 [label="convert_goal <= 675.0\ngini = 0.499\nsamples = 169\nvalue = [88, 81]", fillcolor="#fdf5ef"] ;
311 -> 559 ;
1021 [label="gini = 0.417\nsamples = 27\nvalue = [8, 19]", fillcolor="#8cc6f0"] ;
559 -> 1021 ;
1022 [label="convert_goal <= 2897.191\ngini = 0.492\nsamples = 142\nvalue = [80, 62]", fillcolor="#f9e3d2"] ;
559 -> 1022 ;
1023 [label="gini = 0.454\nsamples = 92\nvalue = [60, 32]", fillcolor="#f3c4a3"] ;
1022 -> 1023 ;
1024 [label="month_project <= 2.5\ngini = 0.48\nsamples = 50\nvalue = [20, 30]", fillcolor="#bddef6"] ;
1022 -> 1024 ;
1025 [label="gini = 0.245\nsamples = 7\nvalue = [6, 1]", fillcolor="#e9965a"] ;
1024 -> 1025 ;
1026 [label="gini = 0.439\nsamples = 43\nvalue = [14, 29]", fillcolor="#99ccf2"] ;
1024 -> 1026 ;
560 [label="gini = 0.26\nsamples = 26\nvalue = [22, 4]", fillcolor="#ea985d"] ;
311 -> 560 ;
312 [label="convert_goal <= 22.039\ngini = 0.393\nsamples = 1412\nvalue = [1032, 380]", fillcolor="#efaf82"] ;
295 -> 312 ;
313 [label="gini = 0.49\nsamples = 56\nvalue = [24, 32]", fillcolor="#cee6f8"] ;
312 -> 313 ;
314 [label="country_JP <= 0.5\ngini = 0.382\nsamples = 1356\nvalue = [1008, 348]", fillcolor="#eeac7d"] ;
312 -> 314 ;
945 [label="gini = 0.38\nsamples = 1353\nvalue = [1008, 345]", fillcolor="#eeac7d"] ;
314 -> 945 ;
946 [label="gini = 0.0\nsamples = 3\nvalue = [0, 3]", fillcolor="#399de5"] ;
314 -> 946 ;
296 [label="gini = 0.48\nsamples = 584\nvalue = [351, 233]", fillcolor="#f6d5bc"] ;
141 -> 296 ;
142 [label="country_GB <= 0.5\ngini = 0.49\nsamples = 3852\nvalue = [2200, 1652]", fillcolor="#f9e0ce"] ;
140 -> 142 ;
159 [label="convert_goal <= 149.967\ngini = 0.481\nsamples = 3215\nvalue = [1921, 1294]", fillcolor="#f7d6be"] ;
142 -> 159 ;
297 [label="gini = 0.483\nsamples = 137\nvalue = [56, 81]", fillcolor="#c2e1f7"] ;
159 -> 297 ;
298 [label="duration <= 57.5\ngini = 0.478\nsamples = 3078\nvalue = [1865, 1213]", fillcolor="#f6d3ba"] ;
159 -> 298 ;
303 [label="subcategy_id <= 321.5\ngini = 0.483\nsamples = 2721\nvalue = [1609, 1112]", fillcolor="#f7d8c2"] ;
298 -> 303 ;
373 [label="subcategy_id <= 309.5\ngini = 0.487\nsamples = 2550\nvalue = [1483, 1067]", fillcolor="#f8dcc7"] ;
303 -> 373 ;
375 [label="subcategy_id <= 301.5\ngini = 0.479\nsamples = 2026\nvalue = [1220, 806]", fillcolor="#f6d4bc"] ;
373 -> 375 ;
403 [label="month_project <= 10.5\ngini = 0.485\nsamples = 1815\nvalue = [1067, 748]", fillcolor="#f7d9c4"] ;
375 -> 403 ;
451 [label="subcategy_id <= 291.5\ngini = 0.478\nsamples = 1535\nvalue = [930, 605]", fillcolor="#f6d3ba"] ;
403 -> 451 ;
1047 [label="subcategy_id <= 285.5\ngini = 0.443\nsamples = 320\nvalue = [214, 106]", fillcolor="#f2bf9b"] ;
451 -> 1047 ;
1049 [label="gini = 0.472\nsamples = 223\nvalue = [138, 85]", fillcolor="#f5cfb3"] ;
1047 -> 1049 ;
1050 [label="gini = 0.339\nsamples = 97\nvalue = [76, 21]", fillcolor="#eca470"] ;
1047 -> 1050 ;
1048 [label="gini = 0.484\nsamples = 1215\nvalue = [716, 499]", fillcolor="#f7d9c3"] ;
451 -> 1048 ;
452 [label="gini = 0.5\nsamples = 280\nvalue = [137, 143]", fillcolor="#f7fbfe"] ;
403 -> 452 ;
404 [label="duration <= 30.5\ngini = 0.399\nsamples = 211\nvalue = [153, 58]", fillcolor="#efb184"] ;
375 -> 404 ;
693 [label="gini = 0.339\nsamples = 157\nvalue = [123, 34]", fillcolor="#eca470"] ;
404 -> 693 ;
694 [label="convert_goal <= 2086.93\ngini = 0.494\nsamples = 54\nvalue = [30, 24]", fillcolor="#fae6d7"] ;
404 -> 694 ;
991 [label="gini = 0.48\nsamples = 30\nvalue = [12, 18]", fillcolor="#bddef6"] ;
694 -> 991 ;
992 [label="gini = 0.375\nsamples = 24\nvalue = [18, 6]", fillcolor="#eeab7b"] ;
694 -> 992 ;
376 [label="country_MX <= 0.5\ngini = 0.5\nsamples = 524\nvalue = [263, 261]", fillcolor="#fffefd"] ;
373 -> 376 ;
421 [label="month_project <= 4.5\ngini = 0.5\nsamples = 507\nvalue = [247, 260]", fillcolor="#f5fafe"] ;
376 -> 421 ;
925 [label="convert_goal <= 1683.0\ngini = 0.481\nsamples = 157\nvalue = [63, 94]", fillcolor="#bedff6"] ;
421 -> 925 ;
927 [label="gini = 0.334\nsamples = 52\nvalue = [11, 41]", fillcolor="#6eb7ec"] ;
925 -> 927 ;
928 [label="gini = 0.5\nsamples = 105\nvalue = [52, 53]", fillcolor="#fbfdff"] ;
925 -> 928 ;
926 [label="gini = 0.499\nsamples = 350\nvalue = [184, 166]", fillcolor="#fcf3ec"] ;
421 -> 926 ;
422 [label="gini = 0.111\nsamples = 17\nvalue = [16, 1]", fillcolor="#e78945"] ;
376 -> 422 ;
374 [label="convert_goal <= 3450.0\ngini = 0.388\nsamples = 171\nvalue = [126, 45]", fillcolor="#eeae80"] ;
303 -> 374 ;
557 [label="gini = 0.328\nsamples = 140\nvalue = [111, 29]", fillcolor="#eca26d"] ;
374 -> 557 ;
558 [label="gini = 0.499\nsamples = 31\nvalue = [15, 16]", fillcolor="#f3f9fd"] ;
374 -> 558 ;
304 [label="convert_goal <= 643.029\ngini = 0.406\nsamples = 357\nvalue = [256, 101]", fillcolor="#efb387"] ;
298 -> 304 ;
875 [label="gini = 0.492\nsamples = 62\nvalue = [35, 27]", fillcolor="#f9e2d2"] ;
304 -> 875 ;
876 [label="subcategy_id <= 292.5\ngini = 0.376\nsamples = 295\nvalue = [221, 74]", fillcolor="#eeab7b"] ;
304 -> 876 ;
877 [label="gini = 0.216\nsamples = 81\nvalue = [71, 10]", fillcolor="#e99355"] ;
876 -> 877 ;
878 [label="gini = 0.419\nsamples = 214\nvalue = [150, 64]", fillcolor="#f0b78d"] ;
876 -> 878 ;
160 [label="convert_goal <= 156.602\ngini = 0.492\nsamples = 637\nvalue = [279, 358]", fillcolor="#d3e9f9"] ;
142 -> 160 ;
477 [label="gini = 0.251\nsamples = 34\nvalue = [5, 29]", fillcolor="#5baee9"] ;
160 -> 477 ;
478 [label="duration <= 41.5\ngini = 0.496\nsamples = 603\nvalue = [274, 329]", fillcolor="#deeffb"] ;
160 -> 478 ;
641 [label="duration <= 30.5\ngini = 0.488\nsamples = 475\nvalue = [201, 274]", fillcolor="#cae5f8"] ;
478 -> 641 ;
797 [label="gini = 0.496\nsamples = 373\nvalue = [170, 203]", fillcolor="#dfeffb"] ;
641 -> 797 ;
798 [label="convert_goal <= 763.318\ngini = 0.423\nsamples = 102\nvalue = [31, 71]", fillcolor="#8fc8f0"] ;
641 -> 798 ;
799 [label="gini = 0.083\nsamples = 23\nvalue = [1, 22]", fillcolor="#42a1e6"] ;
798 -> 799 ;
800 [label="gini = 0.471\nsamples = 79\nvalue = [30, 49]", fillcolor="#b2d9f5"] ;
798 -> 800 ;
642 [label="month_project <= 7.5\ngini = 0.49\nsamples = 128\nvalue = [73, 55]", fillcolor="#f9e0ce"] ;
478 -> 642 ;
741 [label="gini = 0.426\nsamples = 65\nvalue = [45, 20]", fillcolor="#f1b991"] ;
642 -> 741 ;
742 [label="convert_goal <= 1598.198\ngini = 0.494\nsamples = 63\nvalue = [28, 35]", fillcolor="#d7ebfa"] ;
642 -> 742 ;
1017 [label="gini = 0.424\nsamples = 36\nvalue = [11, 25]", fillcolor="#90c8f0"] ;
742 -> 1017 ;
1018 [label="gini = 0.466\nsamples = 27\nvalue = [17, 10]", fillcolor="#f4cbad"] ;
742 -> 1018 ;
76 [label="subcategy_id <= 304.5\ngini = 0.5\nsamples = 3465\nvalue = [1763, 1702]", fillcolor="#fefbf8"] ;
69 -> 76 ;
101 [label="country_GB <= 0.5\ngini = 0.474\nsamples = 1069\nvalue = [412, 657]", fillcolor="#b5daf5"] ;
76 -> 101 ;
231 [label="duration <= 58.5\ngini = 0.494\nsamples = 720\nvalue = [320, 400]", fillcolor="#d7ebfa"] ;
101 -> 231 ;
527 [label="duration <= 30.5\ngini = 0.488\nsamples = 627\nvalue = [264, 363]", fillcolor="#c9e4f8"] ;
231 -> 527 ;
659 [label="country_MX <= 0.5\ngini = 0.497\nsamples = 407\nvalue = [189, 218]", fillcolor="#e5f2fc"] ;
527 -> 659 ;
743 [label="gini = 0.495\nsamples = 394\nvalue = [178, 216]", fillcolor="#dceefa"] ;
659 -> 743 ;
744 [label="gini = 0.26\nsamples = 13\nvalue = [11, 2]", fillcolor="#ea985d"] ;
659 -> 744 ;
660 [label="gini = 0.449\nsamples = 220\nvalue = [75, 145]", fillcolor="#9fd0f2"] ;
527 -> 660 ;
528 [label="gini = 0.479\nsamples = 93\nvalue = [56, 37]", fillcolor="#f6d4bc"] ;
231 -> 528 ;
232 [label="gini = 0.388\nsamples = 349\nvalue = [92, 257]", fillcolor="#80c0ee"] ;
101 -> 232 ;
102 [label="convert_goal <= 1009.392\ngini = 0.492\nsamples = 2396\nvalue = [1351, 1045]", fillcolor="#f9e2d2"] ;
76 -> 102 ;
131 [label="subcategy_id <= 331.5\ngini = 0.494\nsamples = 824\nvalue = [366, 458]", fillcolor="#d7ebfa"] ;
102 -> 131 ;
307 [label="convert_goal <= 900.233\ngini = 0.499\nsamples = 426\nvalue = [221, 205]", fillcolor="#fdf6f1"] ;
131 -> 307 ;
487 [label="gini = 0.499\nsamples = 333\nvalue = [158, 175]", fillcolor="#ecf5fc"] ;
307 -> 487 ;
488 [label="subcategy_id <= 323.5\ngini = 0.437\nsamples = 93\nvalue = [63, 30]", fillcolor="#f1bd97"] ;
307 -> 488 ;
913 [label="gini = 0.159\nsamples = 23\nvalue = [21, 2]", fillcolor="#e78d4c"] ;
488 -> 913 ;
914 [label="subcategy_id <= 324.5\ngini = 0.48\nsamples = 70\nvalue = [42, 28]", fillcolor="#f6d5bd"] ;
488 -> 914 ;
915 [label="gini = 0.391\nsamples = 15\nvalue = [4, 11]", fillcolor="#81c1ee"] ;
914 -> 915 ;
916 [label="gini = 0.427\nsamples = 55\nvalue = [38, 17]", fillcolor="#f1b992"] ;
914 -> 916 ;
308 [label="convert_goal <= 110.088\ngini = 0.463\nsamples = 398\nvalue = [145, 253]", fillcolor="#aad5f4"] ;
131 -> 308 ;
525 [label="gini = 0.231\nsamples = 45\nvalue = [6, 39]", fillcolor="#57ace9"] ;
308 -> 525 ;
526 [label="subcategy_id <= 332.5\ngini = 0.477\nsamples = 353\nvalue = [139, 214]", fillcolor="#baddf6"] ;
308 -> 526 ;
839 [label="gini = 0.498\nsamples = 71\nvalue = [38, 33]", fillcolor="#fceee5"] ;
526 -> 839 ;
840 [label="subcategy_id <= 334.5\ngini = 0.46\nsamples = 282\nvalue = [101, 181]", fillcolor="#a7d4f4"] ;
526 -> 840 ;
841 [label="duration <= 59.5\ngini = 0.323\nsamples = 84\nvalue = [17, 67]", fillcolor="#6bb6ec"] ;
840 -> 841 ;
843 [label="gini = 0.286\nsamples = 81\nvalue = [14, 67]", fillcolor="#62b1ea"] ;
841 -> 843 ;
844 [label="gini = 0.0\nsamples = 3\nvalue = [3, 0]", fillcolor="#e58139"] ;
841 -> 844 ;
842 [label="weekday <= 4.5\ngini = 0.489\nsamples = 198\nvalue = [84, 114]", fillcolor="#cbe5f8"] ;
840 -> 842 ;
917 [label="gini = 0.477\nsamples = 178\nvalue = [70, 108]", fillcolor="#b9ddf6"] ;
842 -> 917 ;
918 [label="country_CA <= 0.5\ngini = 0.42\nsamples = 20\nvalue = [14, 6]", fillcolor="#f0b78e"] ;
842 -> 918 ;
919 [label="gini = 0.291\nsamples = 17\nvalue = [14, 3]", fillcolor="#eb9c63"] ;
918 -> 919 ;
920 [label="gini = 0.0\nsamples = 3\nvalue = [0, 3]", fillcolor="#399de5"] ;
918 -> 920 ;
132 [label="subcategy_id <= 332.5\ngini = 0.468\nsamples = 1572\nvalue = [985, 587]", fillcolor="#f4ccaf"] ;
102 -> 132 ;
211 [label="subcategy_id <= 326.5\ngini = 0.43\nsamples = 976\nvalue = [670, 306]", fillcolor="#f1bb93"] ;
132 -> 211 ;
383 [label="subcategy_id <= 323.5\ngini = 0.475\nsamples = 396\nvalue = [242, 154]", fillcolor="#f6d1b7"] ;
211 -> 383 ;
385 [label="gini = 0.404\nsamples = 185\nvalue = [133, 52]", fillcolor="#efb286"] ;
383 -> 385 ;
386 [label="month_project <= 5.5\ngini = 0.499\nsamples = 211\nvalue = [109, 102]", fillcolor="#fdf7f2"] ;
383 -> 386 ;
387 [label="gini = 0.45\nsamples = 79\nvalue = [27, 52]", fillcolor="#a0d0f2"] ;
386 -> 387 ;
388 [label="convert_goal <= 2792.568\ngini = 0.471\nsamples = 132\nvalue = [82, 50]", fillcolor="#f5ceb2"] ;
386 -> 388 ;
947 [label="gini = 0.499\nsamples = 73\nvalue = [38, 35]", fillcolor="#fdf5ef"] ;
388 -> 947 ;
948 [label="gini = 0.379\nsamples = 59\nvalue = [44, 15]", fillcolor="#eeac7c"] ;
388 -> 948 ;
384 [label="convert_goal <= 2878.502\ngini = 0.387\nsamples = 580\nvalue = [428, 152]", fillcolor="#eeae7f"] ;
211 -> 384 ;
857 [label="duration <= 42.5\ngini = 0.43\nsamples = 317\nvalue = [218, 99]", fillcolor="#f1ba93"] ;
384 -> 857 ;
859 [label="gini = 0.454\nsamples = 258\nvalue = [168, 90]", fillcolor="#f3c4a3"] ;
857 -> 859 ;
860 [label="gini = 0.259\nsamples = 59\nvalue = [50, 9]", fillcolor="#ea985d"] ;
857 -> 860 ;
858 [label="gini = 0.322\nsamples = 263\nvalue = [210, 53]", fillcolor="#eca16b"] ;
384 -> 858 ;
212 [label="convert_goal <= 4508.8\ngini = 0.498\nsamples = 596\nvalue = [315, 281]", fillcolor="#fcf1ea"] ;
132 -> 212 ;
545 [label="country_MX <= 0.5\ngini = 0.5\nsamples = 571\nvalue = [294, 277]", fillcolor="#fdf8f4"] ;
212 -> 545 ;
725 [label="country_FR <= 0.5\ngini = 0.5\nsamples = 559\nvalue = [283, 276]", fillcolor="#fefcfa"] ;
545 -> 725 ;
897 [label="gini = 0.5\nsamples = 552\nvalue = [276, 276]", fillcolor="#ffffff"] ;
725 -> 897 ;
898 [label="gini = 0.0\nsamples = 7\nvalue = [7, 0]", fillcolor="#e58139"] ;
725 -> 898 ;
726 [label="gini = 0.153\nsamples = 12\nvalue = [11, 1]", fillcolor="#e78c4b"] ;
545 -> 726 ;
546 [label="gini = 0.269\nsamples = 25\nvalue = [21, 4]", fillcolor="#ea995f"] ;
212 -> 546 ;
70 [label="convert_goal <= 783.724\ngini = 0.381\nsamples = 3005\nvalue = [2234, 771]", fillcolor="#eeac7d"] ;
34 -> 70 ;
115 [label="convert_goal <= 187.853\ngini = 0.467\nsamples = 1013\nvalue = [637, 376]", fillcolor="#f4cbae"] ;
70 -> 115 ;
215 [label="category_id <= 15.0\ngini = 0.494\nsamples = 208\nvalue = [93, 115]", fillcolor="#d9ecfa"] ;
115 -> 215 ;
495 [label="gini = 0.456\nsamples = 54\nvalue = [35, 19]", fillcolor="#f3c5a4"] ;
215 -> 495 ;
496 [label="gini = 0.47\nsamples = 154\nvalue = [58, 96]", fillcolor="#b1d8f5"] ;
215 -> 496 ;
216 [label="subcategy_id <= 361.5\ngini = 0.438\nsamples = 805\nvalue = [544, 261]", fillcolor="#f1bd98"] ;
115 -> 216 ;
471 [label="gini = 0.428\nsamples = 769\nvalue = [530, 239]", fillcolor="#f1ba92"] ;
216 -> 471 ;
472 [label="month_project <= 10.5\ngini = 0.475\nsamples = 36\nvalue = [14, 22]", fillcolor="#b7dbf6"] ;
216 -> 472 ;
921 [label="gini = 0.43\nsamples = 32\nvalue = [10, 22]", fillcolor="#93caf1"] ;
472 -> 921 ;
922 [label="gini = 0.0\nsamples = 4\nvalue = [4, 0]", fillcolor="#e58139"] ;
472 -> 922 ;
116 [label="subcategy_id <= 361.5\ngini = 0.318\nsamples = 1992\nvalue = [1597, 395]", fillcolor="#eba06a"] ;
70 -> 116 ;
195 [label="subcategy_id <= 345.5\ngini = 0.295\nsamples = 1870\nvalue = [1534, 336]", fillcolor="#eb9d64"] ;
116 -> 195 ;
283 [label="gini = 0.201\nsamples = 742\nvalue = [658, 84]", fillcolor="#e89152"] ;
195 -> 283 ;
284 [label="subcategy_id <= 350.5\ngini = 0.347\nsamples = 1128\nvalue = [876, 252]", fillcolor="#eca572"] ;
195 -> 284 ;
285 [label="subcategy_id <= 347.5\ngini = 0.482\nsamples = 151\nvalue = [90, 61]", fillcolor="#f7d6bf"] ;
284 -> 285 ;
595 [label="gini = 0.396\nsamples = 70\nvalue = [51, 19]", fillcolor="#efb083"] ;
285 -> 595 ;
596 [label="gini = 0.499\nsamples = 81\nvalue = [39, 42]", fillcolor="#f1f8fd"] ;
285 -> 596 ;
286 [label="duration <= 45.5\ngini = 0.315\nsamples = 977\nvalue = [786, 191]", fillcolor="#eba069"] ;
284 -> 286 ;
629 [label="subcategy_id <= 359.5\ngini = 0.338\nsamples = 831\nvalue = [652, 179]", fillcolor="#eca46f"] ;
286 -> 629 ;
889 [label="gini = 0.371\nsamples = 578\nvalue = [436, 142]", fillcolor="#edaa79"] ;
629 -> 889 ;
890 [label="gini = 0.25\nsamples = 253\nvalue = [216, 37]", fillcolor="#e9975b"] ;
629 -> 890 ;
630 [label="gini = 0.151\nsamples = 146\nvalue = [134, 12]", fillcolor="#e78c4b"] ;
286 -> 630 ;
196 [label="country_MX <= 0.5\ngini = 0.499\nsamples = 122\nvalue = [63, 59]", fillcolor="#fdf7f2"] ;
116 -> 196 ;
543 [label="category_id <= 17.5\ngini = 0.499\nsamples = 112\nvalue = [53, 59]", fillcolor="#ebf5fc"] ;
196 -> 543 ;
931 [label="gini = 0.47\nsamples = 69\nvalue = [26, 43]", fillcolor="#b1d8f5"] ;
543 -> 931 ;
932 [label="gini = 0.467\nsamples = 43\nvalue = [27, 16]", fillcolor="#f4ccae"] ;
543 -> 932 ;
544 [label="gini = 0.0\nsamples = 10\nvalue = [10, 0]", fillcolor="#e58139"] ;
196 -> 544 ;
10 [label="convert_goal <= 30472.008\ngini = 0.333\nsamples = 30344\nvalue = [23940, 6404]", fillcolor="#eca36e"] ;
3 -> 10 ;
23 [label="subcategy_id <= 341.5\ngini = 0.383\nsamples = 22092\nvalue = [16388, 5704]", fillcolor="#eead7e"] ;
10 -> 23 ;
51 [label="duration <= 49.5\ngini = 0.402\nsamples = 19299\nvalue = [13916, 5383]", fillcolor="#efb286"] ;
23 -> 51 ;
61 [label="subcategy_id <= 272.5\ngini = 0.419\nsamples = 16835\nvalue = [11805, 5030]", fillcolor="#f0b78d"] ;
51 -> 61 ;
85 [label="subcategy_id <= 270.5\ngini = 0.314\nsamples = 2413\nvalue = [1942, 471]", fillcolor="#eba069"] ;
61 -> 85 ;
149 [label="duration <= 30.5\ngini = 0.386\nsamples = 1417\nvalue = [1047, 370]", fillcolor="#eeae7f"] ;
85 -> 149 ;
371 [label="country_NO <= 0.5\ngini = 0.354\nsamples = 1051\nvalue = [809, 242]", fillcolor="#eda774"] ;
149 -> 371 ;
835 [label="gini = 0.352\nsamples = 1048\nvalue = [809, 239]", fillcolor="#eda673"] ;
371 -> 835 ;
836 [label="gini = 0.0\nsamples = 3\nvalue = [0, 3]", fillcolor="#399de5"] ;
371 -> 836 ;
372 [label="convert_goal <= 6289.897\ngini = 0.455\nsamples = 366\nvalue = [238, 128]", fillcolor="#f3c5a3"] ;
149 -> 372 ;
711 [label="gini = 0.258\nsamples = 46\nvalue = [39, 7]", fillcolor="#ea985d"] ;
372 -> 711 ;
712 [label="gini = 0.47\nsamples = 320\nvalue = [199, 121]", fillcolor="#f5ceb1"] ;
372 -> 712 ;
150 [label="gini = 0.182\nsamples = 996\nvalue = [895, 101]", fillcolor="#e88f4f"] ;
85 -> 150 ;
86 [label="subcategy_id <= 273.5\ngini = 0.432\nsamples = 14422\nvalue = [9863, 4559]", fillcolor="#f1bb95"] ;
61 -> 86 ;
87 [label="duration <= 25.5\ngini = 0.496\nsamples = 897\nvalue = [409, 488]", fillcolor="#dfeffb"] ;
86 -> 87 ;
257 [label="gini = 0.382\nsamples = 136\nvalue = [35, 101]", fillcolor="#7ebfee"] ;
87 -> 257 ;
258 [label="gini = 0.5\nsamples = 761\nvalue = [374, 387]", fillcolor="#f8fcfe"] ;
87 -> 258 ;
88 [label="subcategy_id <= 336.5\ngini = 0.421\nsamples = 13525\nvalue = [9454, 4071]", fillcolor="#f0b78e"] ;
86 -> 88 ;
93 [label="convert_goal <= 16004.372\ngini = 0.408\nsamples = 12105\nvalue = [8643, 3462]", fillcolor="#efb388"] ;
88 -> 93 ;
95 [label="duration <= 28.5\ngini = 0.432\nsamples = 8833\nvalue = [6045, 2788]", fillcolor="#f1bb94"] ;
93 -> 95 ;
147 [label="duration <= 15.5\ngini = 0.481\nsamples = 1642\nvalue = [980, 662]", fillcolor="#f7d6bf"] ;
95 -> 147 ;
259 [label="month_project <= 9.5\ngini = 0.416\nsamples = 404\nvalue = [285, 119]", fillcolor="#f0b68c"] ;
147 -> 259 ;
551 [label="gini = 0.444\nsamples = 324\nvalue = [216, 108]", fillcolor="#f2c09c"] ;
259 -> 551 ;
552 [label="gini = 0.237\nsamples = 80\nvalue = [69, 11]", fillcolor="#e99559"] ;
259 -> 552 ;
260 [label="subcategy_id <= 301.5\ngini = 0.492\nsamples = 1238\nvalue = [695, 543]", fillcolor="#f9e3d4"] ;
147 -> 260 ;
411 [label="subcategy_id <= 280.5\ngini = 0.5\nsamples = 593\nvalue = [300, 293]", fillcolor="#fefcfa"] ;
260 -> 411 ;
413 [label="month_project <= 6.5\ngini = 0.434\nsamples = 110\nvalue = [75, 35]", fillcolor="#f1bc95"] ;
411 -> 413 ;
717 [label="subcategy_id <= 276.5\ngini = 0.497\nsamples = 52\nvalue = [28, 24]", fillcolor="#fbede3"] ;
413 -> 717 ;
719 [label="gini = 0.337\nsamples = 14\nvalue = [3, 11]", fillcolor="#6fb8ec"] ;
717 -> 719 ;
720 [label="gini = 0.45\nsamples = 38\nvalue = [25, 13]", fillcolor="#f3c3a0"] ;
717 -> 720 ;
718 [label="gini = 0.307\nsamples = 58\nvalue = [47, 11]", fillcolor="#eb9e67"] ;
413 -> 718 ;
414 [label="gini = 0.498\nsamples = 483\nvalue = [225, 258]", fillcolor="#e6f2fc"] ;
411 -> 414 ;
412 [label="month_project <= 11.5\ngini = 0.475\nsamples = 645\nvalue = [395, 250]", fillcolor="#f5d1b6"] ;
260 -> 412 ;
583 [label="subcategy_id <= 311.5\ngini = 0.482\nsamples = 595\nvalue = [354, 241]", fillcolor="#f7d7c0"] ;
412 -> 583 ;
975 [label="gini = 0.447\nsamples = 225\nvalue = [149, 76]", fillcolor="#f2c19e"] ;
583 -> 975 ;
976 [label="subcategy_id <= 321.5\ngini = 0.494\nsamples = 370\nvalue = [205, 165]", fillcolor="#fae6d8"] ;
583 -> 976 ;
977 [label="subcategy_id <= 317.5\ngini = 0.499\nsamples = 203\nvalue = [98, 105]", fillcolor="#f2f8fd"] ;
976 -> 977 ;
979 [label="gini = 0.494\nsamples = 133\nvalue = [74, 59]", fillcolor="#fae5d7"] ;
977 -> 979 ;
980 [label="gini = 0.451\nsamples = 70\nvalue = [24, 46]", fillcolor="#a0d0f3"] ;
977 -> 980 ;
978 [label="duration <= 27.5\ngini = 0.46\nsamples = 167\nvalue = [107, 60]", fillcolor="#f4c8a8"] ;
976 -> 978 ;
981 [label="country_FR <= 0.5\ngini = 0.435\nsamples = 147\nvalue = [100, 47]", fillcolor="#f1bc96"] ;
978 -> 981 ;
983 [label="gini = 0.421\nsamples = 143\nvalue = [100, 43]", fillcolor="#f0b78e"] ;
981 -> 983 ;
984 [label="gini = 0.0\nsamples = 4\nvalue = [0, 4]", fillcolor="#399de5"] ;
981 -> 984 ;
982 [label="subcategy_id <= 329.0\ngini = 0.455\nsamples = 20\nvalue = [7, 13]", fillcolor="#a4d2f3"] ;
978 -> 982 ;
985 [label="gini = 0.444\nsamples = 9\nvalue = [6, 3]", fillcolor="#f2c09c"] ;
982 -> 985 ;
986 [label="gini = 0.165\nsamples = 11\nvalue = [1, 10]", fillcolor="#4da7e8"] ;
982 -> 986 ;
584 [label="gini = 0.295\nsamples = 50\nvalue = [41, 9]", fillcolor="#eb9d64"] ;
412 -> 584 ;
148 [label="subcategy_id <= 279.5\ngini = 0.416\nsamples = 7191\nvalue = [5065, 2126]", fillcolor="#f0b68c"] ;
95 -> 148 ;
163 [label="gini = 0.244\nsamples = 499\nvalue = [428, 71]", fillcolor="#e9965a"] ;
148 -> 163 ;
164 [label="subcategy_id <= 293.5\ngini = 0.426\nsamples = 6692\nvalue = [4637, 2055]", fillcolor="#f1b991"] ;
148 -> 164 ;
165 [label="category_id <= 16.0\ngini = 0.481\nsamples = 1672\nvalue = [998, 674]", fillcolor="#f7d6bf"] ;
164 -> 165 ;
301 [label="subcategy_id <= 291.5\ngini = 0.466\nsamples = 1213\nvalue = [765, 448]", fillcolor="#f4cbad"] ;
165 -> 301 ;
479 [label="subcategy_id <= 288.5\ngini = 0.433\nsamples = 572\nvalue = [391, 181]", fillcolor="#f1bb95"] ;
301 -> 479 ;
665 [label="gini = 0.458\nsamples = 408\nvalue = [263, 145]", fillcolor="#f3c6a6"] ;
479 -> 665 ;
666 [label="gini = 0.343\nsamples = 164\nvalue = [128, 36]", fillcolor="#eca471"] ;
479 -> 666 ;
480 [label="convert_goal <= 15635.857\ngini = 0.486\nsamples = 641\nvalue = [374, 267]", fillcolor="#f8dbc6"] ;
301 -> 480 ;
813 [label="gini = 0.483\nsamples = 625\nvalue = [370, 255]", fillcolor="#f7d8c1"] ;
480 -> 813 ;
814 [label="gini = 0.375\nsamples = 16\nvalue = [4, 12]", fillcolor="#7bbeee"] ;
480 -> 814 ;
302 [label="duration <= 37.5\ngini = 0.5\nsamples = 459\nvalue = [233, 226]", fillcolor="#fefbf9"] ;
165 -> 302 ;
879 [label="duration <= 30.5\ngini = 0.499\nsamples = 392\nvalue = [189, 203]", fillcolor="#f1f8fd"] ;
302 -> 879 ;
881 [label="gini = 0.499\nsamples = 313\nvalue = [162, 151]", fillcolor="#fdf6f2"] ;
879 -> 881 ;
882 [label="gini = 0.45\nsamples = 79\nvalue = [27, 52]", fillcolor="#a0d0f2"] ;
879 -> 882 ;
880 [label="gini = 0.451\nsamples = 67\nvalue = [44, 23]", fillcolor="#f3c3a0"] ;
302 -> 880 ;
166 [label="category_id <= 17.0\ngini = 0.399\nsamples = 5020\nvalue = [3639, 1381]", fillcolor="#efb184"] ;
164 -> 166 ;
333 [label="category_id <= 12.5\ngini = 0.408\nsamples = 4520\nvalue = [3232, 1288]", fillcolor="#efb388"] ;
166 -> 333 ;
335 [label="subcategy_id <= 307.5\ngini = 0.383\nsamples = 3179\nvalue = [2357, 822]", fillcolor="#eead7e"] ;
333 -> 335 ;
539 [label="subcategy_id <= 294.5\ngini = 0.41\nsamples = 1535\nvalue = [1093, 442]", fillcolor="#f0b489"] ;
335 -> 539 ;
667 [label="gini = 0.214\nsamples = 74\nvalue = [65, 9]", fillcolor="#e99254"] ;
539 -> 667 ;
668 [label="convert_goal <= 15856.163\ngini = 0.417\nsamples = 1461\nvalue = [1028, 433]", fillcolor="#f0b68c"] ;
539 -> 668 ;
669 [label="gini = 0.414\nsamples = 1449\nvalue = [1025, 424]", fillcolor="#f0b58b"] ;
668 -> 669 ;
670 [label="gini = 0.375\nsamples = 12\nvalue = [3, 9]", fillcolor="#7bbeee"] ;
668 -> 670 ;
540 [label="subcategy_id <= 311.5\ngini = 0.355\nsamples = 1644\nvalue = [1264, 380]", fillcolor="#eda775"] ;
335 -> 540 ;
541 [label="gini = 0.262\nsamples = 734\nvalue = [620, 114]", fillcolor="#ea985d"] ;
540 -> 541 ;
542 [label="gini = 0.414\nsamples = 910\nvalue = [644, 266]", fillcolor="#f0b58b"] ;
540 -> 542 ;
